1378 128
AGCTTCGG -0.4085831 -0.2568475 0.6381675 0.20782825 1.0245838 -0.17211658 0.6363918 0.41462657 -0.4355023 -0.5778673 0.57203424 -0.9459675 -0.47540417 -0.4568814 0.04435043 0.13814749 0.21013328 0.62810963 -0.41506907 -0.108470775 0.4256465 0.32738116 0.7205873 -0.47905618 0.43694344 -0.50205445 -0.006831459 0.41847625 0.15477373 0.56109464 -0.13549164 0.59276015 0.21480946 0.02529995 0.20914817 0.07598924 0.51257867 0.008133444 0.10169797 0.04998119 0.40914637 0.7144023 -0.3643213 -0.7848193 0.22982293 0.43747097 -0.2525979 0.15207252 0.13266782 -0.50057304 0.3421499 -0.28832695 0.07411144 0.7655083 -0.36000273 -0.3519574 0.43785578 -0.45566738 0.056016847 0.20992017 -0.41510555 -0.18897805 0.56056213 -0.60649407 0.4228393 0.057231218 -0.035724055 -0.23380528 -0.10685289 0.27049324 0.28921282 0.4090289 -0.5795922 -0.069559745 0.3922685 -0.39926246 0.2898197 0.019881519 -0.93707633 -0.5896199 -0.78247267 0.28573313 0.35677606 -0.1523427 0.5281041 0.49404967 0.022543557 -0.31775337 -0.07696119 0.3392113 0.058041174 0.11163993 -0.32798854 -0.060319394 -0.064483315 -0.63152516 -0.45764408 -0.70550716 -0.16513713 0.39936185 -0.24594833 0.459477 0.34760115 -0.12514521 -0.43750456 -0.30898938 -0.88312125 0.5103444 0.2638008 -0.9793965 -0.41409534 -0.48017725 0.07464689 0.94812334 0.52631605 -0.297725 0.67452615 0.025342694 0.69401455 -0.011953478 -0.43485403 -0.59335154 0.37394616 0.114102446 -0.12995347 0.034621023 -0.59928447 0.14257413
AAGCTTCG -0.38608477 -0.4515413 0.29816645 -0.019268928 0.5275723 -0.097585164 -0.019100029 0.23527776 0.24094674 -0.24494918 0.33383852 0.035507273 0.1533618 -0.9824127 0.39231366 0.40705624 -0.054699555 0.49066764 -0.10750298 -0.026046356 0.07320453 0.25666994 0.7233932 -0.79212314 -0.30329165 -0.27401823 -0.28625762 0.15939821 0.6837373 0.640439 0.12839861 0.5923111 -0.074572764 0.2563969 0.38644624 0.065349706 0.34691775 -0.0116604455 0.037885573 0.17623383 0.94770396 0.7858835 -0.119634464 -0.5725355 0.3877095 0.69675845 -0.24124585 -0.18128783 -0.035844684 -0.21171181 0.8121157 -0.56025976 -0.505538 0.5566272 -0.34041494 -0.080082625 0.2505443 -0.42529497 0.045033198 -0.002527079 -0.024889056 -0.3603711 0.47347566 -0.62870675 0.4273332 -0.1936322 -0.2533754 -0.29230222 0.0021208387 0.0010914472 -0.20416336 0.3886156 -0.8044795 0.14576681 0.37920386 -0.45042822 0.00776998 0.056739353 -0.698999 0.06362037 -1.245384 0.21401703 0.09265253 -0.15351284 0.8345425 0.4554845 0.39532843 -0.3888034 0.28528258 0.51451516 -0.2911703 -0.024188586 -0.5177714 -0.10210317 0.03349687 -1.1521811 -0.06306063 -0.20359421 -0.16231295 0.52776456 -0.3669308 0.37066102 0.11069296 -0.43125626 -0.5833082 -0.5034451 -0.607223 0.61493677 0.31115213 -0.857589 -0.5403489 0.042888056 0.009998682 0.33986992 0.34896815 0.026634661 0.5556015 -0.10232386 0.620623 -0.32874587 -0.5278914 -0.67258763 -0.010254238 0.373278 -0.46903557 0.08735927 -0.6655433 -0.044482168
GAAAAAGT -0.08842385 -0.31871805 0.051874302 0.30196726 1.510225 -0.23646422 0.32374728 -0.2878314 -0.3055912 0.64795566 -0.045842882 -0.167353 -0.23580568 0.3640059 0.38937387 0.6106823 0.12038304 0.9836913 -0.05230794 0.7546181 0.3994767 -0.0026550135 -0.41935307 -0.45901066 -1.1203718 -0.37758437 0.08873167 0.2621208 0.282655 -0.04281157 0.39933795 -0.4169384 0.42551982 0.04709133 0.4858713 0.5061704 0.42354283 0.3371741 0.069306254 0.32883796 0.82943237 0.6180776 -0.3248216 -0.40940538 -0.32682592 0.5210056 -0.14495116 0.28524977 0.7358759 -0.092577934 0.52793235 0.09869236 -0.20369495 -0.29516256 0.28464678 0.4143781 0.2950957 -0.26254562 0.62274843 0.3705018 0.19385828 0.6298922 -0.096984655 -0.27093914 0.4427729 -0.24203318 0.8387016 -0.18676697 -0.24260972 -0.1474735 0.64250517 0.118510544 -0.25230867 0.004829207 0.93429977 -0.21157116 -0.25229686 -0.41096574 -0.5346651 0.15104002 -0.2905923 -0.6884799 -0.51188236 0.5422082 -0.18623568 0.24044852 -0.5946879 -0.5178239 0.0723149 0.108116224 0.030086718 0.1204409 -0.5598726 0.019492455 0.050871015 -0.2759284 -0.44027993 -0.32743692 -0.10592957 0.13910879 -0.35640603 1.0641464 0.09679104 -0.06385439 0.26483464 0.29085517 -0.24443026 0.45092303 -0.47442245 0.1335227 -0.5062741 0.6727546 0.043466777 -0.72203386 0.6340518 -0.189349 0.028369747 0.73059523 0.09343595 -0.37819833 -0.5978821 -0.17156443 -0.12262167 -0.031674314 -0.1536117 0.37912628 0.54418 -0.27332592
TTGCAAGC 0.07783464 0.5107985 0.8631068 -0.3050984 0.20568486 -0.7049556 -0.35947308 0.2575083 0.07866236 -0.19736011 0.5162327 -0.7363335 0.16095838 -0.024752203 0.54163575 -0.07733591 -0.90800047 0.18718967 -0.59364897 0.017806305 0.444058 0.059918616 -0.053507715 -0.24277964 -0.46084923 0.38279355 0.27272958 0.4893087 0.28558517 0.6139688 0.19356066 -0.36412787 0.3991401 0.1523089 0.2367403 0.1862714 0.108870834 0.47970358 -0.20170607 0.30404332 0.6481487 0.56296843 0.072447166 0.102884136 -0.6783713 0.023948986 -0.56084234 -0.639049 0.29468572 -0.38664305 0.996939 -0.12984413 0.12182125 -0.046608835 -0.5849468 -0.13925534 0.52672637 -0.54322386 -0.58526236 0.57599205 -0.5035052 0.5371572 0.55185187 -0.11658672 0.15617535 -0.48756465 -0.043998778 -0.40791133 -0.15515949 0.0010650797 0.07982332 -0.5217737 -0.5549069 -0.69769675 0.19777453 -0.63167423 0.37123922 -0.826826 -0.471052 -0.13118163 -0.23298836 -0.05828499 -0.09239608 0.386573 -0.47983742 0.69196737 -0.34806085 -0.30460706 -0.4345999 0.38923317 0.4477351 0.17339851 0.16485217 0.5540363 -0.062522456 0.43379578 -0.1473344 -0.3177678 -0.460665 -0.74347025 -0.87757355 -0.2250468 0.68124676 -0.08427279 -0.5493176 0.14793068 0.30729935 -0.32371205 -0.27110654 0.23366411 -0.004123775 -0.7354506 0.04248356 0.051708724 0.3649839 0.3548418 -0.48060545 0.01452908 -0.22437128 -0.4103959 -1.0703877 -0.70770407 0.34969777 -0.27095255 0.0610552 -0.6394325 -0.13662472 0.13915694
GGCGTAAT 0.021781208 -0.5465423 0.28405803 -0.42209688 0.39284042 -0.687107 0.13484004 0.1172358 0.34269008 0.3884886 0.85019726 -0.42183366 -0.04711859 -0.63540286 0.4028398 0.108971484 0.1712867 0.03204902 -0.27376935 0.058945123 0.49387082 -0.33098793 -0.3655578 0.4370558 -0.15590608 0.00080068986 0.3886477 -0.50694245 0.89617985 -0.50732267 -0.29711962 0.55647045 0.44802254 -0.2517532 0.22737359 0.4294992 -0.3825142 0.7973827 -0.0049833995 0.10376155 0.7940984 0.65256727 -0.28487352 0.27059963 0.4320283 0.16815299 -0.30385894 -0.3945998 0.4035441 0.47598925 0.4846447 -0.31239226 -0.1494172 -0.7145352 -0.47145838 -0.19342038 0.21939896 -0.1801869 -0.28720254 0.07480186 -0.36443418 0.48557284 0.52646446 0.1641538 -0.027805664 -0.0132573005 0.4089462 0.23608051 0.26512802 -0.47015244 0.25371012 0.12522778 -0.8753995 0.03764305 0.13877511 0.33218628 0.35251576 -0.27551872 -0.13237694 0.049462646 -1.0014192 -0.6751439 -0.2648199 0.3828983 0.17296368 0.0921013 0.44850266 -0.7683578 0.14983556 0.35626242 -0.18868454 0.09237707 -0.52570033 0.22742341 0.8509282 0.9865755 -0.38032436 -0.51285464 0.52236056 0.54306537 0.19733167 0.43391648 -0.28052425 0.05584019 0.38697353 0.4786448 -0.6594145 0.22755687 -0.046214834 -0.23534127 0.09752439 -0.19069852 0.27577677 0.2823057 0.72750974 -0.82624096 0.18418133 -0.23041147 -0.0836389 0.5273646 0.10717695 -1.1801344 -0.40591377 0.24996577 0.30236107 -0.22514413 -0.64542 0.3985972
TGTTTGGG 0.050830822 -0.10263037 0.7697506 -0.30518296 0.65562177 0.6277026 0.28103995 -0.95427257 -0.3587949 0.148964 -0.38804922 -1.2058682 0.16847749 -0.8334403 0.008956246 -0.10474869 -0.5797275 -0.0476516 -0.6220469 0.03032864 0.27697268 -0.16072132 -0.030476782 -0.4237679 -1.143226 -0.20560285 -0.5120758 0.3148838 0.16692461 -0.05622228 0.36236256 0.23427032 -0.27221537 -0.41937765 0.78939044 0.38705662 0.008453221 0.6519438 -0.46684542 0.9789225 0.6034392 0.6478861 0.032760702 -0.02234283 0.061930288 -0.9099431 0.40433443 -0.18482582 -0.5188605 0.19345097 0.41756102 -0.38858354 -0.37692747 -0.06988909 -0.3477836 0.25277194 1.0116916 -0.009107797 -0.16611242 0.5342431 -0.31398672 -0.108561106 0.38975373 0.12866327 0.45891562 -0.1133943 0.13221386 -0.44540793 -0.25250795 -0.20652476 -0.28246543 -0.17765005 -0.53795743 0.04037359 0.14394525 0.107840575 0.10804132 -0.23170163 -0.5539993 -0.2417255 -0.4806938 -0.070184425 -0.093464725 -0.4772659 0.08299883 -0.015791917 -0.49002025 -0.13371728 -0.5326 0.71922886 0.54315823 0.23753937 0.10473818 -0.663027 -0.30375284 0.2735914 0.3523223 0.0124473935 0.13940926 0.23918556 0.19895847 0.1745433 0.5254113 -0.07318377 -0.015201686 -0.6473011 -0.6460277 0.1672956 0.2994327 -0.4566151 -0.6345959 0.27294093 0.70200646 0.3237016 0.19475448 -0.24401008 -0.2989082 0.73070145 -0.31664586 0.26396266 0.3556678 -0.5965891 -0.38812682 0.48809975 -0.19738458 0.7422303 -0.42390653 0.13191755
CATCTAAA -0.19602035 0.02120103 0.44259462 0.17000999 0.7945862 -0.20387685 0.010182731 -0.21185365 0.52720803 0.32134402 0.123037964 -0.85165924 -0.562271 -0.53120613 -0.2265876 0.009478306 0.2929878 0.03730394 -0.7992746 0.9804171 0.8082265 0.18787916 -0.49063155 -0.34432507 -0.76813364 -0.119469866 0.38593355 0.17757963 0.55342937 -0.085983016 -0.02398989 0.2258039 0.5945705 0.785106 0.43485215 -0.028577186 0.37101275 -0.18035904 -0.04139656 -0.48493823 0.38172626 0.7002228 0.514921 -0.25780582 0.88885593 -0.49583036 0.11204214 -0.02991644 0.21581668 -0.5798638 0.56505114 -0.2792586 -0.08664983 1.0105013 0.16124545 -0.31067243 0.73899156 0.059422113 -0.45871702 0.123994306 -0.6017945 -0.90274215 -0.032269377 -0.28753835 -0.0070191785 -0.04937454 0.5585165 -0.16667885 -0.33146736 0.18689895 0.33033732 -0.3767475 0.049869947 0.5937959 0.21556535 -0.09078965 -0.36286467 -0.54697835 -0.13816914 0.18399069 -0.5739484 0.18466206 -0.5577211 0.2340453 0.8733093 -0.15323712 0.1514278 -0.96036327 -0.5610595 -0.16887358 0.13108973 -0.119398266 -0.5242479 -0.4110634 0.12880348 -0.015598119 0.17351021 -0.59863764 -0.030149577 0.12346005 -0.55000675 -0.21542071 -0.2820496 0.20236415 1.1659355 0.77897507 -0.21863377 -0.015872123 -0.45576647 -0.431997 -0.35737243 -0.1343763 -0.29766822 -0.26860893 0.08089293 0.4111915 -0.5415192 -0.4852896 0.3479285 0.2489489 -0.1485538 -0.27542457 0.28873485 0.18517211 0.31243888 0.31858665 0.025420554 0.0053825257
GAAAGATG 0.3664687 -0.0032826331 -0.549041 -0.305041 0.5288255 -0.22378728 -0.75307643 0.3272888 -0.025375903 -0.03913931 0.17468679 -0.98333186 0.2051386 -0.55066305 -0.5323342 0.013914724 -0.22330569 0.32668224 -0.38207138 0.7147198 0.039448123 -0.02760497 -0.30276346 -0.39330533 -0.0066814655 0.28296512 -0.10537687 0.3055088 0.68781674 -0.14713089 0.07625676 0.8547636 -0.21286154 -0.19123258 1.0943458 -0.22359729 0.13822962 0.40166008 -0.3060458 -0.16579084 0.68389964 0.78782034 -0.11758408 -0.23815772 0.2749436 0.11516309 -0.4821203 0.27835852 -0.6310921 0.052939244 0.39452744 -0.06752956 0.7679804 0.4885582 -0.5799872 0.107077286 0.5817203 -0.5115232 0.48638436 0.2630486 -0.60904175 -0.36140996 0.8061299 -0.22851294 0.34278634 -0.046875767 0.21143597 -0.20225361 -0.33761677 -0.7175605 -0.53213686 -0.4583022 0.0072228136 0.3000868 0.07618771 -0.09113654 0.6196317 -0.4824416 -0.55340564 -0.098372646 0.027465388 -0.12137162 0.10827143 -0.12405226 -0.4445272 0.3395013 0.3961657 -0.40369114 -0.12337708 0.24618879 -0.9519083 0.22336942 0.24836798 0.29101884 0.0036240006 0.12659834 -0.3696882 0.12016103 0.08943019 -0.088656425 -0.8471288 0.5011029 -0.34745824 -0.024548495 0.069899894 0.2902095 -0.19596012 0.13513 -0.695871 -0.6394647 -0.19097026 -0.50359327 0.0040443093 -0.33980808 0.05858798 -0.43477163 0.7549053 -0.20469421 0.81922203 0.16039748 -0.016295685 -0.66159445 1.1142024 0.053666346 -0.28704876 0.5310428 0.8987474 -0.2552669
GTTTGAGT -1.0851207 -0.09997304 -0.051251795 -0.36521044 0.54953206 0.387596 0.32636565 -0.11793284 0.6214824 0.36728734 -0.15772226 -0.23723364 0.11945984 -0.32384107 -0.034002315 -0.09709769 -0.24103908 0.6030665 0.11038138 1.0506421 -0.11956153 -0.529875 -0.35206726 -0.005897414 -0.04627524 -0.52036476 -0.54187435 -0.009830854 0.120568335 0.55178 0.7927988 -0.045582317 0.37861395 -0.43109152 0.41827235 0.38239467 -0.35054556 0.34851393 0.060482573 0.012128511 0.033365004 1.0878879 0.51413107 -0.59289205 0.018548578 -0.06464687 -0.10854396 -0.2227865 0.4178034 0.09244287 0.80803293 0.030679317 0.14972985 -0.85490316 -0.39099026 -0.6285987 0.89213914 0.22971821 -0.0023423366 0.55066425 -0.9112278 0.013250872 0.103584334 -0.10673426 0.849728 0.13374206 0.56358176 0.43879214 -0.26475087 -0.023622686 -0.54288214 0.3122618 0.057109695 -0.16472122 0.24584693 -0.39528644 0.36950865 0.20870773 -0.5360262 -0.23842506 -0.042383656 -0.2538708 -0.16110416 0.9629706 0.34175855 0.2467265 -0.17053604 -0.2095087 0.021458017 0.086183004 0.097881 -0.29808778 -0.8439949 0.50143296 -0.19968084 -0.1575893 -0.038113926 -0.42594624 0.40152553 -0.10243681 -0.7679084 -0.072644256 -0.025688635 0.3582783 -0.1671595 0.5030194 -0.50257784 0.18882957 0.60968244 0.07319687 -1.2159376 -0.07424892 -0.19687316 0.4981831 -0.1570773 0.0049670995 -0.082526766 0.17516099 -0.39015898 0.9762458 -0.29172134 -0.46943644 0.5571547 -0.27183038 0.04756629 0.7393284 0.3581197 -0.5050999
GAAACTCT -0.04752491 -0.6230861 -0.18452436 -0.11974181 0.37141654 0.7407211 -0.3279799 -0.2868664 0.12543513 0.12193521 0.24834348 -0.4287456 0.7363196 0.35249236 -0.0972423 0.46138585 -0.56157464 0.7416392 -0.6693654 0.35312873 0.83594257 -0.062028516 -0.22218482 0.5476329 -0.6234855 0.035013814 -0.026284765 0.041234046 0.14601648 0.081368044 -0.20015112 0.051213518 0.68144375 -0.2767741 0.41245475 0.14745264 0.08258527 0.6118173 -0.098263785 -0.5872656 0.097409286 0.5493587 0.8758264 -0.42747483 0.05134318 0.5835773 0.0855845 -0.743935 0.2398518 0.019132024 0.6428141 -0.6742313 0.09067413 0.17371908 -0.6213322 0.21939863 0.53260356 -0.17585208 -0.55410147 0.37948275 -1.3332366 -0.23819129 -0.47359797 -0.04688337 0.57027036 -0.36913925 0.60064954 0.17824122 -0.6230175 -0.28400126 0.06443281 0.055573095 0.030059613 0.38177446 -0.62600136 0.5809759 0.047121014 0.2069315 -0.78839993 0.30850083 -0.24416028 -0.2071027 -0.48012677 -0.14165547 -0.33803338 0.3269597 -0.0032884076 -0.43104005 -0.48204964 0.07531418 -0.21155427 -0.4257039 -0.7424628 -0.038833503 0.38827696 0.14739339 -0.19189611 -0.15907244 -0.036640566 -0.46906748 0.31451863 -0.5004782 0.4058553 -0.009914442 -0.23332562 0.7748981 0.5340801 0.4948372 -0.018885339 -1.2691668 -0.51145315 -0.47853434 -0.2413725 0.6854267 0.8154058 -0.033877656 -0.39196283 0.19069375 -0.13221714 0.20822573 -0.010551181 -0.7065738 0.21343057 0.090624735 -0.26278 0.33863264 -0.29196927 0.0927067
TCGAATCT 0.015235648 0.20712896 0.2574322 0.56453717 0.26113424 -0.05182131 0.76599836 0.17241222 -0.3154695 0.41931394 0.47170004 -1.002985 -0.31631315 -0.65795046 0.44809234 -0.32989275 -0.32025564 0.44663492 -0.06999408 -0.09635144 -0.6575978 0.15330997 -0.72686607 -0.33690956 -0.80952686 0.12265106 -0.49112716 -0.13902472 0.40095565 0.1465803 -0.076443404 0.64714986 0.34150955 -0.3423547 0.90078515 -0.10362422 0.35398513 0.4943241 -0.2597367 -0.19271745 1.6089612 0.69363964 0.4480119 -0.14963172 0.603656 0.27662638 -0.17581773 -0.38350984 0.11132861 0.41204855 0.49453887 -0.6347114 0.06656493 0.39417902 -0.3472896 0.1198028 -0.4072192 0.047483493 -0.28749213 0.34323868 -0.7238166 0.021586755 -0.28207335 0.41188598 0.25859663 -0.34852064 -0.23080616 -0.62610614 -0.79293925 -0.6323867 0.093562536 0.007760717 -0.75593877 0.20289035 0.28367433 -0.11148086 0.5633169 -0.20572768 -0.3343637 0.22261864 -0.7629476 0.794936 0.17504103 0.5239695 0.5655697 0.6152164 -0.1692177 -0.35301706 -0.19310842 -0.00961322 0.36080575 -0.17648312 -0.56727093 0.43307394 0.04699994 0.20949984 -0.38503742 0.50746715 0.11192377 -0.14923039 0.11519026 -0.41309464 0.44372833 -0.045841217 0.3763603 0.76265556 -0.038058974 0.49776366 -0.239492 -0.05198907 -0.15261269 0.55036676 0.3160778 0.14072727 -0.5780351 -0.6539162 0.5297196 -0.024576511 -0.043836933 0.69352984 -0.016876692 0.20348185 0.5616897 -0.27523932 -0.37612134 -0.22466189 0.26471767 -0.12261155
CGGCGTAA 0.23614028 -0.0027804251 0.52425593 -0.33486974 0.5433485 -1.0806499 0.21306446 -0.15059452 0.5972557 -0.16143821 0.4520714 -0.81272805 0.29155734 -0.5001685 0.14435671 -0.25730395 -0.0825163 0.40283802 -0.27419648 0.24109079 0.83596325 -0.042837065 -0.21616244 -0.097808465 -0.2847304 -0.66969 -0.04827461 -0.9763454 0.52742827 0.4150998 -0.20063072 0.75708395 0.6333619 -0.107354745 0.5486611 0.11781193 -0.031107955 1.0627759 -0.23447433 0.103636146 0.5364476 0.026872294 0.043518074 0.1096376 -0.034636166 0.018959783 0.34562546 -0.9565994 0.05575836 0.28301758 0.5319665 0.27034634 -0.2553151 -0.7070854 -0.07501591 -0.08705867 0.3492733 -0.19498926 -0.052535675 -0.16773409 -0.67906547 0.51589406 0.37566844 -0.1518756 -0.2912783 -0.1224294 0.4147622 -0.52000695 0.27837074 -0.08606104 0.07520996 0.3229428 -0.44897464 -0.07533799 0.34836453 -0.23057109 0.117346875 -0.44246665 -0.40642965 -0.30134472 -0.17097412 -0.557051 0.19894235 -0.007555037 -0.09993955 0.40855184 0.09101499 -0.38943514 -0.25999522 0.65466624 -0.22055218 0.5339263 -0.79391605 0.6109708 -0.23629783 0.73770416 -0.70352757 -0.5675516 0.19672783 0.2775284 0.08083222 0.5832164 -0.053272545 -0.67885286 -0.13637301 0.5815969 -0.6255255 0.2662344 -0.64526916 0.33401343 0.36423683 -0.19651146 0.09262944 0.13692948 0.40053934 -0.076681 -0.6011296 -0.31180912 -0.35062292 -0.30177763 -0.12413486 -1.278716 -0.08631486 -0.10338062 -0.09657927 0.020828696 -0.54878324 0.48790297
GAATGTAA -0.5902984 -0.38859928 -0.6824467 0.014494952 0.30997533 0.15325928 -0.015226586 0.71344376 0.29956874 0.21744102 -0.82784605 -0.8091973 0.07820845 -0.29434398 0.46899945 -0.34019887 -0.055104397 0.78807026 -0.68352145 0.093248405 0.54667485 0.103383765 0.13471195 0.2067877 -0.41570002 -0.4353194 -0.23500246 0.5373364 0.59993756 0.23972298 -0.026481003 0.4362322 0.5783046 0.5419722 0.16977741 0.2998061 0.589268 0.11395332 0.034978304 0.05355398 0.6842509 0.22133769 0.4456395 -0.030087065 -0.11874559 -0.045563426 -0.6589078 0.62679815 0.4464301 0.25259224 0.8317554 -0.6460241 0.34339353 0.27807373 -0.4421927 -0.059233595 0.43596867 -0.091778435 0.0865831 0.14745545 0.15777874 -0.04684737 0.62137467 -0.07090152 0.85138667 -0.25978267 0.25954244 -0.4643213 0.025824755 -0.33650526 0.14334103 0.3188264 -0.74246716 0.39160255 0.63907623 -0.59341085 -0.3007752 -0.6251016 -0.34947014 -0.115753286 -0.66742396 -0.23563385 -0.23080361 -0.53898394 0.3854096 0.85258925 0.15182517 -0.31064853 -0.5048355 -0.026235722 0.1986107 -0.83759904 -0.17175667 0.8844774 0.63076574 -0.42194474 -0.27710342 0.06226728 -0.13503633 0.46577644 0.31555924 -0.30734068 -0.030947562 0.005719693 -0.9500235 -0.30936196 -0.88228625 0.26323414 -0.22584952 -0.11299572 -0.6156542 0.18115775 0.3057206 0.3004131 0.23117742 0.3332486 -0.010247398 0.17872317 0.31462476 0.4009111 -0.097126685 -0.59352046 -0.09176271 0.56316423 0.42737922 -0.28717056 0.058693923 0.6960478
AAGAATGT -0.3588424 -0.020485386 -0.83741146 0.28368714 0.7688854 0.6807081 0.23565564 0.40022027 0.2450179 -0.37396884 -0.6855843 -0.76187557 0.13924563 -0.5855924 0.46506357 -0.3208971 -0.32326424 0.39000842 -0.9320242 0.007202261 0.027326131 0.17284732 -0.67774695 -0.002569177 -0.49407735 -0.53368574 0.40394908 0.25875646 0.6582646 0.3779799 -0.2195495 0.6024281 0.1857965 0.36094666 0.12099145 0.15946202 0.54601544 -5.1447627e-05 -0.1705407 0.3672139 0.7722208 0.10729327 0.5731285 -0.15886615 -0.1116717 -0.17318214 -0.34628922 0.09562345 0.5845826 0.018892098 1.2278854 -0.19670068 0.091045976 -0.17184848 -0.1950851 -0.1407671 0.69877183 -0.63650376 -0.20286906 -0.027112408 -0.262726 0.13631937 0.2586015 -0.4010754 1.1116736 0.07911271 0.53691685 -0.09212996 -0.38352394 -0.44871047 0.37084645 0.74262387 -0.9211866 0.16286683 0.49750853 -0.45028225 0.6138942 -0.80675673 0.037679996 -0.20118786 -0.538027 0.048237897 -0.17624553 -0.017516451 0.097014435 0.08378932 0.55929035 -0.12579514 0.3864503 0.2024063 -0.23690222 -0.053565726 -0.2288202 0.63732564 0.5415594 -0.142839 -0.3626655 0.14348815 -0.24444261 0.3817694 0.29329857 -0.30912587 0.05842937 0.23273586 -0.7534036 -0.2737804 -0.7852524 -0.020790273 0.09205729 0.34523588 -0.3669443 0.5062752 0.37634316 0.32903543 0.5107915 0.5570829 -0.013926596 -0.014613078 0.3199963 0.3054259 0.0623264 -0.29456326 -0.025970802 0.73280346 0.7520358 -0.2733015 0.3477281 0.7236516
GACTCGGC 0.39301404 0.20299177 0.48242053 0.22798812 -0.16425793 -0.8355041 0.123594604 0.21851058 0.27387804 -0.17980139 0.24827783 -0.6932355 -0.09021891 -0.7771738 0.31469843 0.054395933 -0.29347554 0.35539567 0.038027376 -0.13983269 0.57405895 0.28070447 -0.39824685 -0.22942513 -0.32670987 -0.3754408 0.4025899 0.023696382 0.54392785 -0.13417 0.116088755 0.35050753 0.86505216 -0.025432162 0.33566892 0.091557436 0.44816324 0.3267614 0.14771539 0.1976596 0.23990266 0.25564337 0.18191287 -0.23890632 -0.2778608 0.57299227 0.5336065 -0.12713781 0.26925066 0.23909879 0.63414943 0.36345178 -0.2810767 -0.3968438 -0.89414656 0.19163755 0.581436 -0.09745108 -0.23100586 -0.44411454 -0.64159125 0.7223313 0.26712704 0.30835757 -0.207932 0.060388897 0.660293 -0.6322652 -0.7865736 0.5639262 0.55643946 0.0572755 -0.2495873 -0.2569381 0.76975507 0.6785484 0.16287336 -0.9278597 -0.14608552 0.17950247 0.22355759 -0.31612766 0.49174923 0.40926105 0.048454653 1.0108541 0.2784405 -0.5385556 -0.8683719 -0.027324881 -0.88179475 0.46483883 0.19243564 0.29320553 0.20591088 0.48527965 -0.2803215 -0.01314346 0.5437429 0.3169648 -0.19403078 0.2319435 -0.13531996 -0.2752545 -0.1318391 -0.1318296 -0.030565817 0.20544036 0.008083643 0.26474375 -0.82413703 -0.67447233 -0.012062077 0.5550152 1.0044132 -0.42437926 0.1420667 -0.8281143 -0.05975455 -0.35814884 0.2725334 -0.65164876 -0.06621239 0.027011393 -0.024061115 0.6104567 -0.21132675 0.16556498
AGAATGTA -0.6770111 -0.008038033 -0.4149859 -0.20527044 0.115141496 0.6376665 0.45174637 -0.22752927 0.10765264 -0.22400557 -0.79505587 -0.97308356 -0.011730575 -0.375187 0.20934886 0.11266284 -0.61891836 0.5509206 -0.7272429 -0.08617509 0.23546703 0.46709305 0.074955754 0.15063043 -0.54643923 -0.3491455 0.014997895 0.2131886 0.7766335 0.051932953 -0.0075826133 0.30342618 0.00665768 -0.023648787 0.4784024 0.23035978 0.5963398 0.21141306 -0.46757913 0.08625556 0.8771496 -0.3314232 0.02487341 -0.18053879 0.25495893 -0.024522278 -0.58955204 0.61839217 0.80312437 -0.30026075 0.8167374 0.0937819 0.14812532 -0.3188945 -0.7292962 0.05454958 0.6897994 -0.3080568 -0.25370535 0.100202136 0.07788353 0.07488227 0.6879757 -0.09207628 1.1721975 -0.3758871 0.29992583 -0.6278546 -0.33339432 -0.56174755 0.25014654 0.4441047 -1.0100791 0.8136084 0.36423153 -0.64138824 0.048798066 -0.615647 -0.24929881 0.09332788 -0.35558328 0.20882317 -0.1560176 0.1188981 0.44294262 0.5754943 0.45700368 -0.29029506 0.0028417571 0.018688412 0.025128976 -0.01939532 -0.09612874 0.7403811 0.7493512 -0.44986424 -0.42729524 0.2486842 0.039597087 0.6341566 0.10172619 -0.09245931 0.23392014 0.25727856 -0.81386566 0.088217236 -0.45968413 0.16661829 -0.5847976 -0.04066892 -0.3025712 0.00083076226 0.14387853 0.31668162 0.31515172 0.5314127 0.17215481 -0.053150106 0.41987363 0.556517 0.025183273 -0.418969 -0.09974306 0.7671396 0.51718456 -0.24987462 -0.21869849 0.5385074
ACCCATTT 0.40687025 0.19063032 0.23823574 -0.21896006 0.61201125 -0.42459106 0.3163327 0.044300437 -0.077960655 -0.2133873 0.07797747 -0.44440207 0.083829254 0.14540221 -0.15465046 0.034530237 -0.7894179 -0.15655614 -0.17333725 0.21147077 0.48459247 -0.5637539 -0.49091014 -0.16644512 -1.1367646 -0.24846311 0.018857861 1.0043256 0.30204946 0.15853642 -0.16090573 -0.0042790794 0.06412058 -0.0322798 -0.1226701 0.6660314 -0.16455555 0.42969444 -0.23783572 0.39148277 0.2271731 0.6885683 0.08550465 -0.26891866 0.3296588 0.7659303 0.68480945 -0.7482362 0.10921335 0.16031724 0.25234532 -0.17053895 0.09558869 0.85060674 0.5139447 -0.5745073 0.4793318 -0.20242068 -0.07735549 0.57868713 -1.23757 0.28120124 -0.53009194 0.25645053 0.88563865 -0.24402997 -0.6145159 -0.86929625 -0.42010736 -1.1071677 -0.1726814 0.31188303 -0.30902842 -0.015246485 0.34095916 -0.060665924 -0.38565937 -0.1771018 -0.08244828 0.15821688 -0.19632575 -0.24345987 0.012337627 -0.22463298 0.62506795 0.7342932 -0.27148762 -0.15928154 -0.4656856 -0.38855046 -0.2278714 -0.4393174 -0.51282734 0.46027517 -0.5012999 -0.414209 0.7349646 -0.2644 -0.25827652 0.3399038 -0.32987815 -0.18809585 0.30064854 -0.4261243 -0.79925954 0.52553505 -0.3497266 -0.62721467 0.37046382 0.051677864 -0.3695747 0.03043462 -0.12814838 0.39954564 0.15852822 0.042491693 0.12663499 0.7802014 0.810951 0.608013 -0.51073164 -0.39623 0.76044124 0.94377035 0.5746535 0.21969402 -0.41598535 -0.21660621
AGTAACGG 0.2792374 -0.14607538 0.25529128 0.53929573 0.40453887 0.056462042 0.8154246 0.020754317 -0.13602556 0.16952558 0.50119895 -0.4389738 0.1844531 -0.38839957 1.0646206 -0.4729341 0.22115476 -0.24591617 -0.03546199 0.3889743 0.5765531 0.3409329 -0.45271796 0.8879944 -0.43892428 0.48353177 0.32872105 0.7977632 0.3355731 0.17557523 -0.17917673 0.8178098 1.0675844 -0.09937036 0.19600008 -0.45127347 0.19945699 0.4974423 -0.2819437 -0.26652968 0.2779465 0.22377612 -0.14234138 0.14816655 0.09803363 -0.080655076 -0.20559153 0.7295021 -0.12461237 0.85397154 0.15917018 0.27092257 0.6078521 0.13758808 -0.5685269 -0.6231755 0.18852866 -0.42944103 -0.51948446 0.3284697 -0.32093528 -0.23024172 0.2860564 0.3198279 1.1879978 -0.4920597 0.15202238 -0.5661312 -1.0406928 0.008174673 0.4326735 0.12218126 -0.07659929 -0.18049511 0.4948536 0.18065087 -0.46056053 -0.31006488 -0.65706676 0.561483 -0.26948577 -0.6398811 -0.3580871 0.7964929 -0.045098618 0.39190945 0.5046242 -0.33521727 0.31425178 0.12063682 -0.22954082 0.37744427 -1.0566705 0.36631975 -0.7915664 0.11080143 -0.43045953 -0.07927762 -0.43146113 0.3381847 -0.8153618 -1.1357974 0.52492434 -0.054405395 -0.17525299 0.024157843 -0.0006476645 0.32579505 -0.085811555 0.6611322 -0.22745213 0.09045421 -0.21175551 0.14666966 -0.6903079 0.09421181 -0.20576273 0.12197498 0.16403991 -0.0025062226 -0.17059742 -0.5340472 0.82068706 0.5644509 -0.25676203 -0.55663633 0.1436892 0.50617135
TAACGGCG -0.185477 -0.02254589 -0.30330494 0.21521555 0.4058926 0.11472864 0.2774905 -0.14152986 -0.2966743 0.2757163 0.24244757 -0.856425 0.4680236 -0.9871112 0.7165403 0.0021586353 0.3156064 -0.100876935 0.1267427 0.26587674 0.3992868 0.44466212 -0.3436866 0.2788982 -0.5174081 0.069016665 -0.07751439 0.5967931 -0.07034265 0.085661635 0.027738286 0.18012398 0.41578206 -0.15792568 -0.2689885 0.12936947 -0.04424949 0.5282936 0.046603516 -0.23878507 0.3150985 0.15932812 -0.36038893 0.12433911 0.12603258 -0.22742143 -0.08474022 -0.091196716 0.012070872 1.0750183 0.318805 0.5779937 0.562784 0.34474486 -0.27472952 -0.6079141 0.21373801 -0.32792658 -0.45524478 0.82678115 0.023332136 0.104716554 0.27022776 -0.41132832 1.4184445 -0.2464559 0.31749356 -0.3121219 -0.80621004 -0.67214024 0.4905745 -0.12365506 -0.11907526 0.27762127 0.40177965 0.062173925 -0.35085145 -0.77573586 -0.5859458 0.5007544 0.08130039 -1.1027051 -0.4149563 0.9533757 -0.57712346 0.6905261 0.7248822 -0.7102405 -0.046826344 -0.33853874 -0.86556065 0.11079218 -0.46195123 0.5151495 -0.70361763 0.23744087 -0.4346162 -0.13230738 -0.13247797 -0.27329737 -0.85590994 -1.0694981 0.6014709 0.03626693 -0.4145928 -0.2383782 -0.19361684 0.26482028 0.037019223 0.2528752 -0.27750602 0.28818634 -0.029950742 0.5515404 -0.21588992 -0.1322321 -0.24317242 0.18442246 0.030330487 0.26571852 -0.4137199 -0.48176992 0.5424104 0.47733638 -0.23664492 -0.6179048 0.09663193 0.6209168
AACGGCGA 0.37456888 0.0016619653 0.0903679 -0.13084295 0.9488488 -0.15145123 0.56642544 -0.12552567 -0.30388498 0.106719695 0.17808971 -0.5284663 0.288081 -0.70944107 0.7458245 -0.03739714 0.3074436 -0.3323105 0.17464957 0.5604398 0.57946706 0.30710533 -0.67250687 0.4150113 -0.51755065 0.4167029 0.04487925 0.97348833 0.39049816 -0.03887465 -0.22122039 0.14114097 0.46954915 0.120062426 -0.010855223 0.0018263722 -0.13232279 0.55546963 -0.16892509 -0.40987128 0.32735682 0.1238932 -0.27931747 0.56532866 0.5491443 -0.2710812 -0.19385445 -0.03049618 -0.017862853 0.82816386 0.33943442 0.29672188 0.50990564 0.52977836 -0.91521347 0.030721314 0.58036995 0.26376125 -0.3674082 0.028902968 -0.21428725 0.23964643 0.8845251 -0.2523516 1.2440765 -0.7693231 0.22986403 -0.1817123 -0.6901884 -0.1716517 0.4396757 0.032827992 -0.09911451 0.077595346 -0.095635906 0.5888637 -0.41986534 -0.5707565 -0.97517884 -0.013640349 -0.046465572 -1.1136953 -0.81217057 0.85713524 -0.008459004 0.56869346 0.18638815 -0.5148808 0.22584747 -0.21242583 -0.4813675 -0.4663741 0.042568002 0.03748193 -0.62407476 0.25754225 -0.30229545 -0.10193158 0.02692117 -0.24853182 -0.57346034 -0.9116798 0.35020804 0.4207419 -0.61122 -0.056526676 0.26224434 -0.0492946 -0.07153493 0.15703633 -0.34676963 0.14809845 -0.057542726 0.26636058 -0.50148416 -0.42699826 -0.052863423 -0.062403396 0.2982858 0.21747696 -0.1454684 -0.81127775 0.44612035 0.7996988 -0.5682642 -0.18496414 -0.16511008 0.40372804
GTAACGGC 0.7632684 0.13795654 -0.046594203 0.7042498 0.7318884 -0.12158136 0.5942186 -0.56875324 -0.11946334 0.14910342 -0.22603995 -0.80005556 0.2416832 -0.4578327 0.9631365 -0.38048893 -0.09520491 0.19439827 -0.22352909 0.3394534 0.70200324 0.6182402 -0.24035062 0.14505437 -0.5228615 0.31690332 -0.04145807 0.6629023 -0.24564064 0.38849798 -0.35363436 0.30166593 0.85784227 0.32251316 -0.20566279 -0.3213162 -0.31286836 0.6022366 -0.0017281232 -0.022722308 0.17802005 0.5008118 -0.24807997 0.08535649 0.28433233 -0.010222907 0.04133035 0.15263711 -0.04525024 0.77768797 0.24503042 0.02734732 0.56092465 -0.13192038 -0.5707873 -0.38951826 0.5227909 -0.27139336 -0.46730345 0.16760115 -0.2035808 0.22681823 0.6164376 -0.13346052 0.66152537 -0.55523014 0.21770777 -0.24372709 -0.7519455 0.057752702 0.75866765 -0.049985327 -0.11814772 0.051341686 0.6489872 0.41307977 -0.52976507 -0.035658356 -0.8128076 0.07554735 0.09967483 -1.0262008 -0.48060256 1.0624657 -0.48456135 0.12266561 0.7583097 -0.70216095 -0.064908646 0.04341149 -0.57952213 0.15113404 -0.47878516 0.4023154 -1.0371442 -0.17589979 -0.06212712 -0.38199988 -0.17303136 -0.14285164 -0.705982 -1.0484713 0.51110893 0.03635008 -0.21223745 -0.034027692 -0.18926296 0.48710826 -0.3382222 0.4532572 -0.4788446 -0.21579747 -0.044074092 0.3716295 -0.46945816 -0.41548425 -0.059927616 0.29480243 0.26539236 0.10459572 -0.27740735 -0.36301133 0.10288239 0.73348063 -0.15928477 -0.47972807 -0.2706616 0.77508783
CGGCGAGT 0.2814732 0.080772445 -0.13422975 -0.10300383 1.2347864 -0.24573404 0.5065292 -0.2119877 0.3854496 -0.048384544 0.050993226 -0.37288558 -0.12276959 -0.34901613 0.59628916 0.20250419 0.42971748 -0.07218713 0.028465992 -0.2006936 0.61418796 0.52621084 -0.15977904 -0.16141956 -0.6764265 0.30292943 -0.17060716 0.89580584 0.06318906 0.24546522 -0.124728285 0.4216653 0.2911973 -0.01999498 -0.100016184 0.0590111 0.019705242 0.09754485 -0.16455942 -0.27324566 0.37316856 0.3124598 0.15658113 -0.08544748 0.116267145 -0.74018055 -0.22361843 0.08887041 -0.20010594 0.5154703 0.32444495 0.24246936 0.45182255 0.4724392 -0.501032 -0.41314232 0.29017726 0.29293165 -0.1596901 0.5704749 -0.3195893 0.35270005 0.45968828 -0.4203737 1.2941151 -0.5407292 0.49283668 -0.03592477 -0.7681009 -0.5639237 0.41371286 -0.02848604 -0.2907415 -0.09709676 0.09073028 0.27751288 -0.49590138 -0.68726796 -1.1612664 0.28194067 0.31127205 -0.7156552 -0.4130433 1.1509464 0.49515158 0.17176704 0.08361127 -0.8458623 -0.15591577 0.055629943 -0.29441413 -0.19734895 -0.29466116 0.27029002 -0.329826 0.24509434 -0.28887627 -0.6248498 -0.31753117 -0.43135896 0.022592071 -1.3892437 0.0054370495 0.6520634 -0.58990663 -0.2650417 0.060730573 0.6665908 0.56263417 0.5059262 -0.8977724 0.102605365 0.09872327 0.42432132 -0.48172104 0.27254415 -0.3667909 0.31933045 0.48036686 0.4252034 -0.10503814 -0.35224766 0.811188 0.593793 -0.09479307 -0.044033743 0.16037634 0.50508446
ACGGCGAG 0.5288562 -0.13905884 0.3370418 -0.064097404 0.76756155 -0.029579481 0.7655623 0.13686211 0.10968639 0.06330076 -0.09909492 -0.7357917 0.36280975 -0.36840585 0.60899264 0.058769114 0.35211074 -0.29625466 -0.25013244 0.28019914 0.71018106 0.390132 -0.72711015 -0.07084546 -0.6874984 -0.1449756 0.055319317 0.40834093 0.2649549 -0.11049146 -0.14689372 0.032269895 0.37813297 -0.021228537 -0.12982336 -0.090804264 -0.062181268 0.7256412 0.17092152 -0.30689415 0.4149247 0.49664116 -0.5419076 0.56535053 0.23157932 -0.24492142 -0.12701398 0.17393777 0.11878636 0.70546544 0.12051066 0.26912802 0.68289644 0.19928199 -0.45399773 -0.65825343 0.8196665 0.48271307 -0.07546836 0.15299965 -0.6439244 -0.11265246 0.321827 0.08676941 1.0960666 -0.7129331 -0.040090926 -0.010335335 -0.6663485 -0.3847109 0.5050148 -0.14938632 -0.06674822 0.03888179 0.33056012 0.38958606 -0.6150353 -1.0270029 -0.98473006 0.1629662 -0.09178953 -1.1421597 0.071776226 1.0342877 0.05153577 0.24063694 0.51611745 -0.662381 -0.051736325 0.0586993 -0.7754827 0.16458414 -0.24510482 0.50846016 -0.7047244 0.18830453 -0.105836004 0.051600367 -0.0070726564 -0.046653453 -0.08151438 -0.95163393 -0.26270878 0.12127687 -0.8083752 0.050314326 -0.1950082 0.59822094 0.6467869 -0.05333285 -0.43125978 0.41613787 0.24094173 0.26973546 -0.585206 0.115883455 -0.34745273 0.25773138 0.49868667 -0.11156639 -0.4200707 -0.74837166 0.33386567 0.6262554 -0.17439978 -0.2541649 0.6267805 0.492734
GGCGAGTG 0.5210931 0.035395686 -0.026791848 0.004999797 1.0157166 -0.5987627 0.37683234 -0.04211392 -0.115784444 0.3315412 -0.005739504 -0.49335822 0.07363712 -0.51557845 0.85678846 0.18537857 0.4999603 -0.19755857 0.10521175 0.100146964 0.36736292 0.50781345 -0.993842 0.03362422 -1.1392463 -0.12015836 0.063647255 0.5894556 0.05305129 0.10627772 0.07826753 0.39112648 0.28481898 0.53983784 -0.10692134 -0.09396042 -0.16736142 0.53852004 -0.08808227 -0.021448417 0.48430297 0.8588992 -0.19851363 0.93822366 0.17153138 -0.34091836 0.40513867 0.05584978 -0.45680305 0.6280485 0.3969764 0.30408287 0.3808033 0.04972554 -0.046615653 0.077993676 0.2796812 0.46098554 -0.100253426 0.48418295 -0.2994375 0.19919442 0.3077586 -0.15313452 0.91572094 -0.44110733 0.47162658 -0.35130066 -0.66047424 -0.6850925 0.48288137 -0.26728725 0.03375757 -0.042558752 -0.11244731 0.40958422 -0.099460915 -0.76159775 -1.2143886 0.17574538 0.009930876 -0.29610777 -0.46712306 0.37609217 0.22665493 0.3220154 0.35976362 -0.9809981 0.1737544 -0.13628222 -0.8522977 -0.19379531 -0.29544955 0.32618892 -0.49402055 0.05757636 -0.23023172 -0.32829416 0.4404211 -0.003570463 -0.52429706 -1.2099115 0.11068054 0.5190157 -0.63404024 -0.37175438 0.31589338 0.47823197 0.55869615 0.43751892 -0.4688588 0.3698539 -0.15000089 -0.050647322 -0.3295084 0.3015579 -0.13717191 -0.25177106 0.41031793 0.90046334 -0.2188889 -0.45561132 0.31038222 0.35175815 0.08250776 -0.015939867 0.56638384 0.48624298
GCGAGTGA 0.51933986 -0.30638468 0.39693764 -0.16567281 1.0907407 -0.1410309 0.23500675 -0.17670988 0.3308185 0.052742966 0.13483793 -0.4749807 -0.19347642 -0.5137429 0.46107855 0.09174063 0.43720764 0.065645985 -0.13264842 -0.0521832 0.48793826 0.7063917 -0.0074350266 -0.1784222 -1.1337785 0.0002618143 0.067767136 0.7004774 0.37731084 -0.07836862 -0.11465152 0.72884375 0.103480265 0.11800467 -0.23152244 -1.0307912 0.20486957 0.45869824 0.1356243 -0.13701856 0.8673109 1.0304259 -0.23854904 0.42774644 0.37704608 -0.21964514 0.49754742 0.08999058 -0.25055593 0.5170797 0.45512483 0.02617711 0.7207557 0.30395502 -0.5702057 0.12988709 0.17112209 0.29837468 -0.14981607 0.6449654 -0.32086754 0.13882647 0.04945635 -0.209426 1.1458958 -0.38401103 0.19097404 -0.18374217 -0.42149565 -1.1471492 0.67635906 -0.085080385 -0.42596713 0.21328649 -0.04598878 0.28673953 -0.21867824 -0.7596446 -0.5695448 0.15500294 0.21164368 -0.5294929 -0.78187376 0.9334616 0.097599484 0.77759445 0.03164624 -0.7855333 0.214054 0.16136363 -0.9779351 0.060656674 0.036577348 0.13388121 -0.24643 -0.32793632 0.012726421 -0.24730329 -0.112426125 -0.14951283 -0.5066793 -0.59224784 -0.0911319 0.5556035 -0.6198479 -0.54121095 0.22446994 0.4814999 0.5027398 -0.08561777 -0.65563715 0.2921615 0.19024499 0.21154004 -0.39128947 -0.16186503 0.03565352 0.32344064 0.33198854 0.38151482 -0.58148676 -0.9018329 0.58151525 0.25573722 -0.07043951 0.041670516 0.077873036 0.06996987
CGAGTGAA 0.84173226 -0.5408461 0.4374087 -0.44247612 1.0625311 -0.6636688 0.12008581 -0.04394276 -0.14834413 -0.11511481 0.7787572 -0.34810904 -0.22253966 -0.34369 0.6773552 0.46303338 0.26746842 0.12783246 0.12549816 -0.34606254 0.36181253 0.4623526 -0.44175693 -0.5124696 -0.65437514 0.15589337 0.071486786 0.70359874 0.427321 0.46999127 0.12766697 0.10929087 0.6659846 0.16858084 0.054051824 -0.22143474 0.08672411 0.51487917 -0.07069455 0.26016852 0.86109805 0.5072757 -0.3199607 0.16627055 0.27016553 -0.6978248 0.2900001 0.26312926 -0.14558351 0.827267 0.033207383 -0.032511692 0.5270016 0.8873377 -0.4471318 0.26402217 0.21682726 0.46325615 -0.32054207 0.74442667 -0.4632 0.34442014 0.090126514 -0.15744807 0.35521245 -0.26671308 0.24315916 -0.21709588 -1.0534103 -0.64866877 0.47291 -0.41674346 0.09647844 -0.2458651 0.400141 -0.0049834307 -0.13085459 -0.62389827 -0.75639784 -0.17258789 0.21131034 -0.8402687 -0.38446823 0.86554384 0.23189662 0.40809965 -0.018333333 -1.2214258 -0.42750835 0.059183292 -1.1149751 0.17686142 0.35404876 0.23398659 -0.6077047 0.10543194 0.022033725 -0.3649331 0.4219708 -0.2513591 -0.4284955 -0.9809569 -0.06390076 0.27764308 -0.18639882 -0.51432395 0.32770342 0.44334766 0.29072195 0.029231414 -0.31891197 0.66601807 0.016840557 0.24480298 -0.12551685 0.07770869 -0.10211381 -0.31606704 0.44113636 0.41371852 -0.26337993 -0.77787024 0.46873719 0.3989937 -0.1892138 -0.012069071 0.23036355 0.13905217
GAGTGAAG 0.21154599 0.27203888 0.43766284 -0.81205124 1.1848642 -0.87775844 0.21640843 0.10392323 -0.31701255 0.17236583 0.7976611 -0.38092628 -0.5429954 -0.35387424 0.7510593 0.3353129 1.0269043 -0.29398155 -0.12714265 -0.04506743 0.88920987 0.6188251 -0.5941231 -0.17865373 -0.7486938 -0.18965715 0.13023607 0.7670124 0.34334373 0.10462621 -0.19520538 0.4402464 0.32336754 -0.060087655 -0.18191585 -0.12834947 -0.10265986 0.09756073 0.053320784 0.32611805 0.75110996 1.0635021 -0.11001021 0.4919073 0.16944483 -0.34224433 0.49358994 0.036951818 -0.19186205 0.41854706 0.6508075 0.20599249 0.5924167 0.44799423 -0.08416719 -0.20323037 0.41405356 0.6201421 -0.10913911 0.51486856 -0.14030713 0.33354414 0.1317506 -0.45889407 0.79647636 -0.20843197 0.2655569 0.14560774 -0.6205686 -0.700792 0.20963608 -0.47574878 -0.1471887 -0.4377941 0.16486825 0.3628286 -0.5767356 -0.47189748 -0.7272454 -0.09513942 -0.048359737 -0.88334584 -0.32485673 0.50310636 0.46132144 0.84551626 0.078612246 -1.0412538 0.17619544 0.2779605 -0.98201567 0.28070793 -0.31204334 0.09788388 -0.42142805 0.05050406 -0.044965602 -0.6862186 0.07698952 -0.75683534 -0.4501438 -0.88353586 -0.59537894 -0.00023811904 -0.1445058 -0.71902776 -0.22579443 0.3329096 0.17278153 -0.29882622 -0.10599307 0.03183121 0.21693286 0.32359043 0.0092562055 -0.120221846 -0.14766973 0.27573508 0.4584274 0.33987665 -0.25358582 -0.450208 0.07609603 0.08699374 -0.23349418 0.01663203 -0.05261154 0.08248436
AAGCGGCA 0.18842795 -0.19886869 0.6034663 -0.61826277 0.94380456 -0.5202223 0.41416535 -0.32999125 -0.92173725 0.23275429 0.36484483 -0.29513675 -0.46304655 -0.60309106 0.5928369 -0.013563063 0.12469712 0.46479633 0.23293348 0.23317237 0.5337845 0.63837004 -1.1760969 -0.25793022 -0.4346759 0.22986595 -0.40667787 0.5519875 0.81305563 0.39008957 -0.22321403 0.48504165 0.8001562 0.06474545 0.16109926 -0.36464107 -0.023020621 -0.33740115 -0.14163415 0.1567844 -0.087805204 0.171533 0.06673964 0.5438987 0.010034299 -0.4402473 0.2913545 -0.4951945 -0.12313528 0.3871534 1.0083884 0.25890607 0.141048 0.5567301 -0.31871033 0.4101556 0.2409847 0.018376388 -0.24087103 0.41690186 -0.1215622 -0.09222099 0.057609934 -0.16537552 0.4084244 -0.29921 0.23077284 0.023293529 -0.9132414 -0.41429302 0.32310063 -0.1121524 -0.4788313 0.06331144 -0.019936005 -0.21936998 -0.45475727 -0.29851604 -0.39284164 -0.31169415 -0.030929852 -0.54735494 -0.62371475 0.7254811 -0.0048880214 1.1472275 -0.05075764 -0.8863557 0.17177892 0.06926887 -0.88920754 -0.17782606 0.25247872 -0.2431163 0.21911694 0.44416907 -0.035878997 -0.39293957 -0.19198209 -0.61052746 -0.9758815 -0.4866341 -0.26921132 0.081640944 -0.15730537 -0.109724395 -0.07726132 -0.38161343 0.05619142 -0.11674866 0.21132869 0.19764149 -0.26779795 0.34961763 -0.16823478 -0.55984235 0.3548572 -0.44141757 0.23031385 0.73297983 -0.067567624 -0.8711115 0.17975855 1.0158113 -0.6998839 -0.042593643 -0.31294906 0.5478225
GCGGCAAA 0.09846963 -0.06884116 0.46478927 -0.45563486 0.797687 -0.16629457 0.64429164 -0.18168004 -0.39504492 0.3503346 -0.07922109 -0.4614915 -0.6825908 0.0347244 0.29659185 0.12128305 0.15219957 0.6492048 0.028739598 0.057552855 0.5855747 0.4384944 -0.9601144 -0.58795285 -0.4242228 0.15237908 -0.52918243 0.5052552 0.5125126 0.15789513 -0.3785652 0.18685474 0.54036355 -0.28915918 0.3715992 -0.010111416 0.05633532 -0.66508573 -0.016474325 0.0021044842 -0.26999086 0.18089052 0.39935553 0.13143511 -0.2873093 -0.98221433 -0.06662128 -0.22703017 -0.024147507 0.14311063 0.7667224 0.13863367 0.5378391 0.5807193 -0.3187057 -0.11274353 0.22896478 0.02165037 0.2094892 0.73828125 -0.45748106 0.097968996 0.050917257 -0.061029803 0.3729159 -0.09542292 0.3497596 0.039249025 -1.0855341 -0.73637664 0.20184715 -0.36054167 -0.3840473 -0.12759188 0.048518624 -0.63723063 -0.43271676 -0.71678877 -0.63752836 -0.08446647 0.47699493 -0.390246 0.03610447 1.2687427 0.27380404 0.64563316 -0.17063801 -0.92210007 -0.26523972 0.45790613 -0.5401126 -0.02637871 0.18934123 0.2116051 0.31648564 0.77933824 -0.023222802 -0.85018015 -0.6216916 -0.7432306 -0.11952797 -0.89053845 -0.52642983 -0.08631301 -0.05254323 0.4009134 -0.430295 0.32856512 0.7258455 0.09100747 -0.07955313 -0.32921016 0.29492062 0.5780687 0.017016126 -0.26370305 0.18215914 0.20862308 0.2666476 0.3731878 -0.012642803 -0.42872488 0.37847146 1.10392 -0.30590135 0.2940978 0.17072968 0.19609386
AGCGGCAA 0.38002074 -0.24828404 0.7867826 -0.3873021 0.44819996 -0.10747718 0.5064078 -0.29977143 -0.91761464 0.13890062 0.07148392 -0.5788302 -0.3133997 -0.32008314 0.52825814 0.1155786 0.31808028 0.6497488 0.014013023 0.3613416 0.62782276 0.4332619 -1.2029275 -0.5226559 -0.44754186 -0.15434253 -0.76243126 0.15423897 0.65223444 0.29080755 -0.14486307 0.25514784 0.5565928 -0.33906394 0.321155 -0.3352867 0.091770284 0.17290391 0.04317553 0.08038256 0.06297348 0.100309044 -0.36704075 0.6670244 -0.14403889 -0.13138404 -0.005963561 -0.4486412 0.122431405 0.5259574 0.879144 0.15948717 0.31476235 0.2114575 -0.39687017 -0.008495625 0.5014389 0.099035226 -0.1335717 0.492216 -0.53221405 -0.30071244 0.031052483 0.19380488 0.16681294 -0.3015182 0.054515272 -0.105428606 -0.8441355 -0.6936014 0.12706003 -0.26549286 -0.28601584 0.12958695 0.22044408 -0.2705771 -0.7794518 -0.74095863 -0.57513255 -0.362717 -0.072492465 -0.5842787 0.17687884 0.8556042 0.34724236 0.8231003 0.22011645 -0.8149106 -0.18169877 0.18067135 -1.322346 0.5319093 0.17362803 0.23916745 -0.023465566 0.46274635 0.36891967 -0.24717432 -0.27864653 -0.34404817 -0.62815106 -0.45762846 -0.7223224 -0.56675756 -0.31898966 0.2168828 -0.08632086 0.112435095 0.769094 -0.38505167 0.36227012 0.23834513 0.19144683 0.21692325 -0.19748938 -0.5096924 0.055811375 0.4266697 0.38947123 0.15359539 -0.27353108 -0.7341726 0.024753597 1.0443962 -0.27608004 -0.027283879 0.47046104 0.25824353
GCAAAAGC 0.028678793 -1.0313038 0.60245943 0.12362941 0.6167809 -0.24245605 -0.12428509 -0.1277256 -0.5153948 0.34450907 -0.089882895 -0.25131446 -0.39028022 -0.3399227 0.47386932 0.67227304 -0.09162121 0.77671146 0.20468852 0.5414263 -0.02743989 0.39627925 -0.89298385 -0.88334835 -0.75128967 -0.248875 -0.29702833 0.23565567 0.23767571 0.39353555 0.15113612 0.36035532 0.35847375 0.20213789 0.28246 -0.14572126 0.16177478 -0.35633475 -0.14922738 -0.04599908 0.32645974 0.08150545 0.011373221 0.14437993 -0.2583869 -0.23038784 0.3313689 -0.25082567 -0.37259877 0.28006163 0.73423487 -0.0032957846 0.4236159 0.46225604 -0.981726 0.4312814 0.07293622 -0.20442696 -0.092785746 1.0864233 -0.10444872 -0.042633757 0.35166112 -0.08147274 -0.097720526 -0.05605573 -0.032743756 -0.05983853 -1.2215468 -0.8656234 0.19740872 -0.70365 -0.4928622 0.063925155 0.36080456 -0.7742341 -0.019856876 -0.8077239 -0.59102243 -0.078440115 0.25738263 -0.3158026 0.13716727 0.89375633 0.16911232 0.6023575 -0.14656292 -1.2071437 -0.26357004 0.2053634 -1.3253206 0.026699109 0.45323914 0.42041674 0.008219386 0.24167256 0.061182734 -0.43082538 -0.02449591 -0.3337332 -0.16894697 -0.4569566 -0.093555525 -0.025522802 0.017373748 0.19541857 0.25027215 0.62725276 0.5590744 -0.5133917 -0.26886672 0.25496635 0.28838658 0.4914971 -0.0012047448 -0.19473858 0.23761415 -0.43084577 -0.12524915 0.1507648 -0.19029759 -0.44365013 0.44248813 1.0191119 -0.62649447 0.67294455 -0.18006997 -0.015360005
AGTGAAGC 0.5739729 -0.3073644 0.3696244 -0.98998064 1.4256947 -0.46700698 0.10441781 -0.120456256 -0.15634698 -0.1201985 0.07875101 -0.26300633 -0.16301176 -0.4902191 0.19373468 0.28293222 0.34505963 0.123525076 -0.17830876 0.07627479 0.769928 0.83618164 -0.6535159 -0.19647154 -0.8614436 -0.17730144 -0.18123205 0.5737208 0.52732676 0.44657323 -0.12174466 0.09691906 0.059330888 -0.2359525 0.22352792 -0.63090974 0.07429329 0.42032212 0.18611562 0.393376 0.50417227 0.59482944 -0.12434598 0.5149911 -0.24422967 -0.49572736 0.8673031 -0.24676424 0.05631143 0.4459248 0.62287635 0.6103094 0.37967607 0.10685909 0.07335907 0.13625577 0.27238446 0.37838197 -0.09540848 0.86602396 -0.61788714 -0.0026236274 -0.20684445 -0.31167954 0.34740797 -0.04700412 0.59282947 -0.08649228 -0.6326512 -0.5731772 0.30315888 -0.32507873 -0.10511214 -0.17110245 0.14114901 0.37399247 -0.6267536 -0.8773208 -0.818046 -0.1008228 0.25020608 -0.889812 -0.30352056 0.811544 -0.057072844 0.73646736 -0.6271538 -0.8392896 0.041059688 -0.0652162 -0.9333647 0.14755204 -0.095091626 0.11806968 0.010215435 0.31162283 0.07227966 -0.3529877 0.16821465 -0.21023369 -0.13039272 -0.96125776 -0.7745479 0.05579137 0.12894191 0.059410032 0.2505682 -0.18526344 0.16806744 0.0591273 -0.10594722 -0.09055563 0.013593145 0.58722264 -0.40206176 -0.14058901 -0.0395893 -0.1359118 0.55885494 0.9327128 -0.37452835 -0.7140122 0.6134405 0.60976547 -0.08229396 0.13141835 0.20734581 0.31737486
GAAGCGGC 0.20700587 0.2264104 0.19656949 -0.62844193 0.5927025 -0.30389124 0.05185424 -0.45422566 -0.51568615 0.13712922 0.22784129 -0.69836116 -0.5896879 -0.8427774 0.43155664 0.0843514 0.35342762 0.5364689 0.106551774 -0.25379425 0.45053574 0.7923114 -0.8161288 -0.5506386 -0.6984192 0.12700275 -0.3995997 0.4983907 0.40669146 0.44209924 0.04144277 0.35140994 0.6036344 -0.21093188 -0.12145642 -0.44143578 0.1215355 0.09718339 -0.2507316 0.36947787 0.27427554 0.5676863 0.080524825 0.24515317 -0.3859451 -0.17867562 0.5555254 -0.28883907 -0.042851053 0.679236 0.6098769 0.31959915 0.19687672 0.25491273 0.022942178 -0.20482069 0.2306881 -0.12119789 -0.25767553 0.9147034 0.12302365 0.10862665 -0.33477405 -0.31494728 0.43007115 0.13147122 0.25051925 -0.28797933 -0.8419783 -1.0646127 0.3964115 -0.39076123 -0.43465325 0.049413722 0.15130666 -0.4365057 -0.332524 -0.46413395 -0.4328939 -0.12563741 0.4678417 -0.45504165 -0.2201373 0.77734524 -0.265911 1.0766146 0.24070461 -1.1579974 -0.11042489 0.12036415 -1.29973 0.4338232 -0.15783435 0.4309728 -0.20122364 0.26257676 0.08238485 -0.6085507 -0.5776361 -0.5044616 -0.69113797 -0.9301814 -0.19525042 -0.5053714 0.24564062 -0.23498781 -0.22836706 0.10972807 0.544285 -0.015489863 0.3137313 0.019469846 -0.15082228 0.32886904 0.16103879 0.0014983792 0.04758662 -0.12705612 0.036902785 0.7867252 -0.29433635 -0.60319746 0.21906458 0.7480039 -0.17681493 -0.21443361 0.3345175 0.379215
GTGAAGCG 0.40221083 -0.3264974 0.6907665 -0.8126009 1.008967 -0.34051806 0.6962534 -0.38873953 -0.4856338 -0.11300558 0.83214104 -0.3326021 -0.56481296 -0.43097225 0.44537315 -0.13759217 0.67359895 0.08261442 -0.026625384 0.13309215 0.7179662 0.77721584 -0.95572954 0.029992439 -0.5280166 0.29458058 -0.07335245 0.59330076 0.7638052 0.36993617 -0.12833112 0.9048767 0.7068358 0.06756625 0.13975485 -0.5484878 0.20025112 -0.077933826 -0.52906954 0.29828733 0.54476273 0.4398837 -0.124802925 0.22555138 -0.4079546 -0.43728566 0.40650046 0.47569093 -0.2707718 0.38825327 0.6067561 0.35552713 0.3211481 0.16526398 -0.06026855 -0.08398862 -0.011232494 0.2767294 -0.44234544 0.6248431 -0.27503586 -0.20293884 -0.42578116 0.060258564 0.31361306 -0.24429733 -0.035324145 -0.16424961 -0.9871093 -0.6825301 -0.036086503 -0.2067841 -0.3001663 -0.18447354 0.029145584 -0.106934845 -0.4611167 -0.99384606 -0.7863556 -0.28738225 0.14314798 -0.52045166 -0.3288043 0.5431591 0.49545863 0.68810415 -0.25273094 -0.97294414 0.44666323 0.5605636 -0.7264915 0.4603056 -0.33234644 0.3626718 -0.004349221 0.24557166 -0.124473944 -0.6575302 -0.0803509 -0.2188057 -0.43921325 -0.7767207 -0.36764348 -0.15500614 0.04190948 -0.19197607 0.14484797 0.2652884 0.7692396 0.23332293 -0.03100652 0.14404182 -0.23960449 0.025101779 -0.5872957 0.08866523 0.083495684 -0.053877592 0.1663933 0.80405897 -0.24447113 -0.82364804 0.63201034 0.6892273 -0.246889 -0.17205474 0.332847 0.0043680705
CGGCAAAA 0.075772986 -0.26189062 0.25405067 -0.045533888 0.5735523 -0.16920699 0.2080429 -0.05927358 -0.6886764 0.88895446 -0.21267661 -0.27451956 -0.47289985 -0.49954376 0.89685714 0.31467986 0.21426268 0.23814923 0.4764086 0.55443394 0.26364198 0.45274353 -1.5688472 -0.32144096 -0.79524034 -0.34681293 -0.49130946 0.033927623 0.10496347 0.32741195 -0.12973773 0.2992916 0.27732715 0.38705227 0.35814798 0.07936706 -0.090190835 -0.498173 0.0087741995 0.20402779 -0.00058122387 0.10972106 0.026909212 0.69673246 -0.34986874 -0.61193734 0.4050233 -0.39574775 -0.7343481 0.25410032 1.4796082 0.37915754 0.23955217 -0.16577014 -0.14070986 0.17885435 0.18648726 -0.023612443 -0.012342071 0.9205596 -0.3933688 -0.017497832 0.2868366 0.018916765 0.13685802 -0.18925728 0.5710655 -0.043768976 -1.0600996 -0.7205081 -0.05868988 -0.4959803 -0.1209003 -0.11416113 0.032924578 -0.4179461 -0.507598 -0.87630135 -0.8143539 0.07331166 0.026507705 -0.2534983 0.09207868 0.6195687 0.14289224 0.45867082 0.3077743 -1.1069217 -0.010634444 0.12836309 -0.99569255 -0.18959486 -0.17493384 0.17356052 0.15224493 0.6887621 0.038206507 -0.4088632 -0.18847299 -0.38282984 -0.15121251 -0.80907786 -0.15466902 -0.15034203 -0.19827786 0.32207492 -0.027935663 0.30727476 0.7754939 -0.039107867 -0.018790418 -0.19335654 -0.26464257 0.20332897 -0.2675605 -0.18917479 0.13087343 -0.18260454 -0.10680501 0.6046275 -0.29528096 -0.22715062 0.10315832 1.1109004 -0.32218876 0.4282629 0.4040961 0.39083377
TGAAGCGG 1.000725 -0.08060377 0.30688894 -0.17150095 1.1428688 -0.7462237 0.53604776 -0.481686 -0.51770276 0.2412472 0.1706803 -0.20117754 -0.67647314 -0.34537828 0.72961146 0.007835549 0.2909227 0.6033439 -0.48225304 0.06655611 0.5488775 0.94136167 -0.65314406 -0.48051965 -0.8144469 0.20171179 -0.26210874 0.6247346 0.16985826 0.6071737 -0.30810457 0.5793591 0.68906295 0.3232711 -0.14504474 -0.5538975 0.24512836 -0.10280667 0.07187257 0.43498516 0.24673386 0.49924034 0.05681209 0.34304652 -0.18983522 -0.38208053 0.664136 -0.041961595 -0.15614642 0.10583798 0.8659032 -0.12455848 0.31938007 -0.012386358 -0.09067045 0.12100433 0.3898195 0.056506738 -0.30256727 0.6625225 -0.53499955 0.19288057 -0.15301992 0.14243224 0.03366602 -0.10341598 0.093473025 -0.34779626 -0.8376698 -0.5315956 0.6224332 -0.26884422 -0.47574732 -0.36671415 0.43966722 0.02430032 -0.43765154 -0.33496654 -0.5983731 -0.5424425 0.03963914 -0.5312904 -0.40601695 0.8981255 0.13079894 0.5550322 -0.0029171808 -0.9130662 -0.011706605 0.41121286 -1.1707623 0.4199159 0.0042536794 0.19371496 -0.2256143 -0.107085064 0.21980654 -0.7552349 -0.11346148 -0.34806237 -0.6120063 -0.8873143 -0.6646072 -0.09905346 0.00997635 -0.1280909 -0.043681234 0.320092 0.19745226 0.23660627 -0.1851719 -0.04464039 -0.10053914 0.04839659 -0.41092694 -0.19331272 0.21926004 0.23976748 0.50506604 0.51020914 -0.30650127 -0.43207246 -0.10659629 1.0687617 -0.040069178 -0.11129735 -0.15015243 0.5586824
AAAGCTTC -0.9410338 -0.41852248 -0.1059938 0.39615437 1.0538629 -0.3582167 0.20948516 0.42676416 0.13175486 0.07605413 0.58737165 -0.4861476 -0.37013954 -0.91007614 0.6635568 0.69192713 -0.52335113 -0.103059635 -0.37528545 0.16533794 0.35902837 0.2592672 0.41676995 -0.24361977 -0.16003129 -0.48726222 -0.010184958 0.18047634 0.33272195 0.35257113 -0.46385756 0.103064045 0.15219375 0.53128016 0.3532453 0.0883028 0.26057094 -0.021621047 0.30258822 0.5209958 0.67893505 0.35708347 0.09312875 -0.6631747 0.6320575 0.5437516 0.74762475 -0.17953734 -0.11589308 -0.20856567 0.79388744 -0.35747206 -0.04444015 0.62470186 -0.5916902 -0.5650811 -0.06609823 -0.17051414 0.041370485 0.8575244 -0.19228628 -0.059011843 0.7713609 -0.68845296 -0.32278806 0.084438 -0.17774872 -0.10823031 -0.3009798 0.15151013 -0.12962243 -0.10821726 -0.507045 -0.30297956 0.59947664 -0.5501157 0.06483382 0.09214392 -0.33814898 -0.06198516 -0.35311842 -0.07439024 -0.061002772 0.4848202 -0.20529339 0.81480044 0.018654564 -0.3511686 0.16325378 0.18168683 0.06488608 -0.3356995 -0.5290639 -0.07127055 -0.40384334 -0.5750167 -0.3228398 -0.4924602 -0.1867253 0.1513117 0.06830973 0.28983563 0.30477038 -0.10558875 0.11231363 -0.22453082 -0.72910815 0.5614206 -0.26939437 -1.3276093 -0.6050432 -0.904513 0.072961174 0.49248952 0.45880145 -0.498123 0.8270085 -0.5177097 -0.080078356 -0.28817135 -0.6192991 -0.5305231 -0.06555506 0.50269777 -0.5163211 0.66175085 -0.66488737 0.14387798
CAAAAGCT -0.17264317 -0.59422296 0.46781686 -0.31464463 0.6224399 -0.10877618 -0.27492693 0.38793713 -0.6434658 0.6810436 0.11620138 -0.4783184 -0.8427907 -0.35263988 0.545771 0.65009505 0.46202675 0.35362777 0.1327089 0.23442225 0.26437965 0.29883525 -0.65585744 -0.87057024 -0.5046301 -0.35147655 -0.33183092 0.095235325 0.36770198 0.47164544 -0.08462122 0.53883594 0.024619093 0.21546018 0.19988944 0.1523685 -0.08454475 -0.5997362 0.03154087 -0.17944065 0.17184584 0.544464 -0.010398755 0.27185374 0.10261849 -0.41251191 -0.044706583 -0.61835927 -0.55528754 0.18211468 1.0647503 -0.15879981 0.14717612 0.2971599 -0.6422792 0.33042395 0.15042362 0.24206331 0.072603635 0.7357579 -0.3191937 0.42718285 0.39153907 -0.3575691 0.3192027 0.20018573 0.33251625 0.048849236 -0.7676501 -1.1184533 -0.18246937 -0.6418562 -0.4569232 -0.35512316 0.22309294 -0.53002226 -0.2876706 -0.5557384 -0.75888854 -0.63203037 -0.1552171 -0.40732327 0.21372688 0.20597883 0.66628957 0.64323467 0.17367415 -1.0638999 -0.17244846 0.21959369 -1.1180393 -0.07271576 -0.203788 0.03643893 0.25188807 0.44670513 0.23008187 -0.5361144 -0.34244925 -1.1112219 -0.13162307 -0.09782072 -0.2769494 -0.15823127 -0.013877992 -0.0378108 0.00088805286 0.48708948 0.64205086 -0.90440017 -0.14523947 0.1216018 -0.009836461 0.5757205 0.3563323 -0.28503197 0.13092639 0.0247845 0.0017087534 -0.103979304 -0.30555546 -0.24794506 -0.3596583 0.68139964 -0.5192827 0.75472325 -0.015109139 -0.13506968
GGCAAAAG 0.026341174 -0.259984 0.3942488 0.0034909728 0.6518292 0.0552063 0.07201197 -0.30903396 -0.050582822 0.7216842 -0.39369932 -0.3512787 -0.5236449 -0.48059952 0.3498326 0.40210658 -0.192909 0.42968553 0.02301416 0.5663094 0.30863613 0.4707415 -0.72498715 -0.76350987 -0.9057328 -0.07328006 -0.34712994 0.26892528 0.47136387 0.0680164 -0.4546345 0.5729164 0.0378979 0.098868996 0.21696642 -0.9604232 0.010031645 -0.26330516 -0.030367635 -0.15415701 0.05336475 0.35427916 -0.09140625 0.6468283 -0.06549423 -0.36965206 0.5118289 -0.492879 -0.49475163 0.14243892 1.0656271 -0.019453824 0.09583856 -0.0440617 -0.521113 0.11040395 0.072226495 0.119484894 0.10007536 0.73337734 -0.22970504 -0.06746646 0.10349421 0.02143718 0.3736943 0.038297437 0.13734183 0.032693926 -0.71781754 -1.2329195 0.23025662 -0.36718875 -0.6828574 0.17360713 -0.1039014 -0.4475108 -0.18218547 -1.026547 -0.5684446 -0.16966857 0.31352195 -0.09067056 -0.30399588 0.85903823 0.13915835 1.1305758 0.026996562 -0.8680797 0.2096589 0.39490557 -1.0005054 -0.08816428 0.14419216 0.04198115 0.5445245 0.3936762 0.18614373 -0.67643344 -0.5864376 -0.5544767 -0.20924969 0.05939768 -0.25655758 0.039813913 -0.22680597 0.36312288 -0.0038079114 0.38048542 1.0682243 -0.41489485 -0.25242192 -0.101948425 0.026201565 0.2087164 -0.2591253 -0.2576394 0.3228895 0.19230309 -0.24506813 0.2816597 -0.33567914 -0.64190155 0.10988399 1.0802747 -0.34792116 0.57689345 0.018326217 0.03504359
AAAAGCTC -0.23091027 -0.6007847 0.51038337 -0.44254014 0.9565672 -0.28936103 -0.4577713 0.32841936 -0.24990009 0.03509685 -0.27303126 -0.13135098 -0.46568674 -0.6775677 0.28439036 0.9678747 0.120636955 0.469197 0.33400947 0.23812896 0.23950008 0.34136873 -1.1540734 -0.74554455 -0.6932398 -0.7484049 -0.37543243 0.23729198 0.5293929 0.3870288 -0.22845435 0.11899135 -0.18401013 -0.007166991 0.43016204 -0.16820043 0.18250565 -0.1824858 0.3484716 0.2738538 0.36568546 0.40522832 0.063125856 0.5037721 -0.15192302 0.009964167 0.61720264 -0.7108759 0.016289487 0.022758221 0.85908407 0.07768897 0.060028102 0.17974932 -0.35853538 -0.008468895 0.2338741 0.14717337 0.1849225 0.84960127 -0.39283773 -0.14339238 0.3757822 -0.5374129 -0.024308922 0.15919554 0.38158682 -0.21038282 -0.5334578 -0.65867907 0.08713709 -0.63929987 -0.57885355 -0.4170156 0.023265243 -0.32358295 -0.3479479 -0.6117016 -0.48983508 -0.361304 0.03900716 -0.10186472 0.18310967 0.42565015 0.39553124 0.7941021 -0.6970096 -0.7148957 -0.0029625525 0.15940091 -1.0125705 -0.278974 0.20430012 -0.10274072 0.40235302 0.532515 0.17337061 -0.14097852 -0.49602443 -0.07864805 0.07635058 -0.21713492 -0.7619016 -0.31234774 0.12360768 0.17155838 0.05647628 0.4134492 0.44834432 -0.6676959 0.045025337 -0.48465064 0.441794 0.7100605 -0.08882393 -0.17289615 0.14139989 -0.4204196 0.34435973 0.44240835 -0.113374434 -0.42649174 0.3014724 1.0742267 -0.33087945 0.96174437 -0.26557165 0.033018224
GAAAGCTT -0.34762967 -0.43641493 0.29893154 0.48874086 0.8704048 -0.22584175 0.067601606 0.55210876 0.5593682 0.21327536 -0.14668293 -0.59490776 0.03273141 -0.7390078 0.73340505 0.8971106 -0.25540847 0.12633818 0.1692191 -0.053061627 0.41143778 -0.02159463 0.57027346 -0.41653618 -0.48612443 -0.5076586 0.16829827 0.39737114 -0.094276726 -0.17704812 -0.30683574 -0.146746 -0.18404438 0.60758275 0.12066251 0.26965237 0.37643978 -0.0032666298 0.34890535 0.18185285 0.6206145 0.5530018 -0.2599831 -0.5356388 0.19243823 0.21591708 0.3564373 0.1154814 -0.05019633 -0.4356618 0.58629686 -0.49668145 0.081969984 0.33526257 -0.47428352 -0.8285672 0.17024978 -0.43273988 0.24448512 0.9152146 -0.22126085 0.29410204 0.48578754 -0.5518332 0.172586 0.27324545 -0.24646044 -0.52625704 -0.28183183 -0.10197854 -0.26090112 -0.20438933 -0.4831171 -0.40801772 0.58458686 -0.65854305 -0.000111509464 -0.08280722 -0.9387902 0.08863816 -0.24415685 -0.08538972 0.4817272 0.58077836 0.36583033 0.55440956 0.2869764 -0.3740044 0.104568355 0.3682344 -0.023936544 -0.38799378 -0.014240501 -0.08230033 -0.18527758 -0.25955543 -0.10869606 -0.36642542 -0.65497434 0.36175495 0.21045227 0.42961475 0.6880025 -0.67924315 -0.2563161 0.081311725 -0.632983 1.1361601 0.67727757 -1.0333451 -0.2924428 -1.0624104 -0.06615371 0.430796 0.13162346 -0.12743516 0.52315176 0.16412356 0.020856153 -0.3510982 -0.86475825 -0.4329272 0.15435776 0.3251238 -0.14446913 0.5579145 -0.6614148 -0.1240825
AAAGCTCA -0.24455014 -1.1686736 0.97951776 -0.60413235 0.99123794 0.0064662355 0.17870077 -0.08331203 -0.37843576 -0.16378619 0.21459411 -0.5921259 -0.6078649 -0.5280719 0.39561725 0.42501667 0.097561285 0.497206 -0.0075600506 0.49200428 0.31788823 0.7319983 -0.793404 -0.58171713 -0.3074264 -0.5888408 -0.29205582 0.024298327 0.768737 0.25291273 -0.18155739 0.59706545 -0.054984495 0.67925483 0.28645948 -0.29920888 -0.16712017 -0.5658959 -0.33653614 0.44288722 0.46309647 0.24557233 -0.0059325825 -0.0017978637 -0.19076589 -0.17355256 0.19217137 -0.12909727 -0.37333325 0.16813448 0.73329455 0.06645748 0.18853545 -0.017495684 -0.37204337 0.35642362 -0.07062187 -0.0019249669 0.19929487 0.830857 -0.05913972 -0.18627486 0.14596693 -0.584728 -0.08252019 0.1374927 0.39616567 0.13958529 -0.7628796 -0.7422401 -0.7051994 -0.48012248 -0.65036786 -0.08625116 0.33295202 -0.5950449 -0.36748502 -0.6373238 -0.87913656 -0.3598032 -0.101167165 -0.10319355 0.37057883 0.005355119 0.7981056 0.52949256 -0.22754371 -0.8262541 0.44097173 0.46347097 -0.43114403 0.017576814 -0.41730344 0.43131408 0.6595452 0.12103468 0.0140134515 -0.41608298 -0.25663102 -0.17868906 0.15883231 0.06555213 -0.39830318 -0.27859524 -0.08586207 0.5760407 0.056589596 0.5855464 0.87084633 -0.6639916 0.00921151 -0.20070949 0.24945535 0.68144196 -0.11370042 -0.18324909 0.39587262 -0.38523784 -0.01256161 0.3309952 -0.53760356 -0.6283986 0.38820583 0.66895694 -0.43577784 0.56774586 0.010799118 -0.42155358
AAGCTCAA 0.3159869 -0.84995145 0.62536836 0.25495732 1.1026629 -0.42547175 -0.011422944 0.06507785 -0.5641536 0.34548533 0.17077869 -0.19190992 -0.9398336 -0.47164953 0.71422666 0.5619422 0.04791033 0.78375596 -0.2577058 0.42597434 0.25099525 0.7207913 -0.4490288 -0.5964796 -0.5511491 -0.43468013 -0.29060793 0.37071508 0.2598807 0.45561734 -0.30873814 0.5232282 -0.0022705244 0.6130256 0.19547528 -0.24901529 0.22051749 -0.42319337 0.051075626 0.1956023 0.23886433 0.20410964 0.05707417 -0.046184037 0.05537404 -0.41349775 0.56555396 -0.24734084 -0.44091746 -0.15786582 1.2380613 -0.17987707 0.07334566 -0.27252337 -0.35690284 0.120078154 0.25882125 -0.3414706 0.19851865 1.061173 -0.664417 -0.015610178 -0.01735401 -0.35828042 -0.36501047 0.1944256 0.054324564 -0.4151174 -0.5941179 -0.49502686 -0.08818434 -0.4053521 -0.41149318 -0.6960195 0.59722555 -0.68110967 -0.023942616 -0.24501544 -0.68858904 -0.32708013 -0.2170424 0.29231775 0.13005185 0.29075733 0.9081583 0.19570738 -0.5404041 -0.8463046 0.22768183 0.5523763 -0.9004125 0.12763102 -0.13594425 -0.028975984 0.46291533 0.21403843 0.6394051 -0.4657413 -0.15407196 -0.11362137 -0.15858237 -0.008715211 -0.7404145 -0.43014476 0.14318953 0.39489725 -0.18516552 0.82146835 0.437065 -0.45459652 -0.29186338 -0.27122688 0.3004069 0.119937405 -0.17495295 -0.18651459 0.34653652 0.18143864 0.40903392 0.3751729 -0.38308498 -0.25635198 -0.12694298 1.1817226 -0.048123956 0.5916875 -0.46323982 -0.081174664
ATTTGAAA -0.94363576 -0.58211535 0.17149155 0.4797607 0.26402512 0.17894752 -0.1286104 0.38472888 -0.4140292 0.8924183 -0.412242 -1.0314109 -0.37799388 -0.6303743 0.7940437 0.41800418 -0.25236115 0.6953613 0.16082397 0.22436821 0.18141632 0.2633436 0.14641044 -0.5456303 -0.13557288 -0.30443066 -0.41279104 0.33248153 0.4658671 0.112282254 -0.33103958 0.10663091 0.24394368 0.35763308 0.33875918 0.32905358 0.16419463 -0.16206674 0.27832136 -0.18691398 -0.1310105 0.16999869 0.3624758 -0.49112746 0.34989202 -0.097807825 -0.2583855 -0.26364735 -0.18325405 0.33431682 1.0433067 -0.45179057 0.15289521 0.2548387 -0.825343 -0.02488911 0.24395287 -0.5569235 0.21302219 0.82588315 -0.2616367 0.114935786 0.5882345 -0.42419824 0.3116488 0.021295547 0.046789996 -0.22061364 -0.28437504 -0.41475773 -0.07144713 0.13831948 -0.65473014 -0.025427569 0.64523995 -1.1360042 -0.22911172 -0.1348082 -0.6857823 0.028366184 -0.6804963 -0.34286186 0.30700505 0.33975986 0.3856669 0.5672985 0.48420453 -0.7552108 -0.24145836 0.093791984 -0.1382389 -0.60416746 -0.5667653 0.14591007 0.20985694 -0.13096134 0.17619744 -0.20457737 -0.5803956 -0.45943287 -0.022812927 0.20443697 0.0934507 -0.48101225 -0.17798318 0.3130624 -0.7683041 0.15570627 0.29145148 -1.14361 -0.26443082 -0.4821754 -0.024634363 0.3710095 0.5941918 -0.4014007 0.5303072 0.28306028 -0.23731738 -0.39546445 -0.66484445 -0.31098258 -0.54554516 0.8876593 -0.44245616 0.65961766 -0.6217326 0.2965587
CTCAAATT 0.01830853 -0.5072665 1.1589583 -0.123650156 0.43215317 -0.14711636 -0.0029422436 -0.317405 -0.71144223 0.119230695 0.35080642 -0.3934085 -0.23317714 -0.8781662 0.5968233 0.41126338 -0.21583894 0.52301913 0.36071485 0.43726972 0.36966488 0.27647132 -0.31422773 -0.98273265 -0.17460541 -0.21465048 -0.5990111 0.168077 0.673638 0.37502742 -0.28202742 0.16187266 0.24504496 -0.08059516 0.6173432 -0.19788112 -0.069526315 -0.010165427 0.11993066 0.19341196 0.05779191 0.23835185 -0.19088611 -0.05530123 0.23643641 0.35420758 0.17780823 -0.60112 -0.110560514 0.31745738 0.980956 0.09366771 -0.49247825 0.07555805 -0.2560941 -0.052049648 0.18660264 -0.5860689 -0.081285015 0.632978 -0.63420784 -0.42425305 -0.010737943 -0.27811438 -0.24457277 0.027285296 -0.006536085 -0.2779692 -0.5668654 -0.25803694 -0.5980383 -0.17904663 -0.58979017 -0.24938293 0.5218902 -0.71386796 -0.4549252 -0.016638214 -0.30418676 -0.035097495 -0.46708965 -0.20297249 0.40296134 0.36867598 0.5737524 0.6030501 0.001802585 -0.77659225 0.10550771 0.45882818 -1.0077772 0.35734415 -0.39162156 -0.27383313 -0.080350935 0.22999565 0.6051804 -0.20333068 -0.5808417 -0.052913435 -0.40249655 0.33562568 -0.39508504 -1.1125413 0.45066434 0.5992518 -0.31831366 0.15371102 0.5701627 -0.8090066 0.28896287 -0.21303879 0.12402738 0.10577339 0.010348389 -0.5141835 0.5113973 0.04727533 0.12183615 -0.21601184 -0.6200126 -0.71791995 -0.078040026 0.868646 -0.6277814 0.46414587 -0.55888665 -0.17673299
TTTGAAAG -0.9122195 -0.33687568 0.13570148 0.16938786 0.43599647 0.28525624 -0.12654017 0.7115249 -0.072232954 0.04580875 -0.35946405 -0.4467397 0.25240582 -0.6620704 0.47216386 0.69842553 -0.19301511 0.25563705 0.23705636 0.1627358 0.2316708 -0.02028807 -0.3805749 -0.49144858 -0.18742637 -0.5987059 -0.21872006 0.13887037 0.3387887 0.28420466 -0.49218202 -0.0051103104 -0.20000672 -0.1755576 0.90702504 0.2410701 0.3697849 -0.15216193 0.71009856 -0.2702801 0.10209874 0.48385778 0.17738584 -0.056987252 0.43647283 0.1395651 0.097777694 -0.35581812 0.20185287 -0.28978515 1.1440197 -0.2289414 -0.006469628 0.5603022 -0.39032167 -0.44898874 0.098288864 -0.47865617 0.13957797 0.8266795 -0.57848674 -0.27330863 0.57479733 -0.622394 0.2362976 -0.101933494 -0.046327837 -0.3399697 -0.2276485 -0.30779284 -0.0030101247 -0.041401275 -0.6862792 -0.04681116 0.21139975 -0.88271636 0.0020994032 -0.15335655 -0.14768168 0.33252886 -0.4498426 0.06958767 0.6158024 0.7358566 0.3660904 0.847528 -0.11715461 -0.3856636 -0.16537568 0.5094486 -0.40312013 -0.5740167 0.050111167 -0.3070797 0.1671067 0.14824186 0.008056078 -0.09298881 -0.8218876 0.18308589 0.09302192 -0.014215898 -0.17052154 -0.31841248 -0.1843274 -0.20051356 -0.80904377 0.4420802 0.18151322 -1.2522542 -0.3741473 -0.9203288 0.46477294 0.6715698 0.24900661 -0.779517 0.53723943 0.11288974 0.055678893 -0.22011435 -0.4968887 -0.4842132 -0.003544716 0.9171272 -0.2406845 0.8965401 -0.5317338 0.29285523
CAAATTTG -0.34521 -0.55748254 0.4861593 -0.12870304 0.5395057 0.3357413 0.35568097 0.11571162 -0.6001943 0.20560826 -0.031354178 -0.62822837 -0.27614638 -0.88506126 1.0135231 0.24331743 -0.08723932 0.32227242 0.19473656 0.5107695 0.36125052 0.39071363 -0.7620927 -0.44378164 -0.08019628 -0.39166805 -0.32996792 0.3284953 0.21492974 0.2749098 -0.4697425 -0.19385435 0.1882886 0.47305274 0.26073673 0.5956521 0.046370104 -0.85462326 -0.003413052 0.121591836 -0.07445078 -0.032297317 0.44026858 -0.2511604 0.22888923 -0.047401454 0.2947607 -0.4554387 -0.11973 -0.09365651 1.2868897 0.2837922 -0.18689683 -0.2885086 -0.122238696 -0.37528768 0.48653498 -0.72174245 0.114023425 0.9102895 -0.5872196 -0.13364041 -0.111631684 -0.60307497 0.09062973 0.0040107085 0.2834805 -0.24114917 -0.44505018 -0.05086458 -0.6583158 -0.3213388 -0.5972043 -0.60247785 0.63122505 -0.7814704 -0.36827627 0.035795387 -0.103588015 0.28958264 -0.33727115 -0.12045041 0.5978163 0.4453273 0.13510135 0.19851628 0.05729741 -0.7374835 0.009532148 0.31583524 -0.5640491 -0.68767226 -0.5654456 0.20044495 -0.2617387 0.40808085 0.26915938 -0.09814874 -0.77639335 -0.10436972 0.10731274 -0.31007978 -0.12005017 -0.7759995 -0.024515634 0.7953553 -0.90671986 0.46735206 0.38233057 -0.57785803 0.13772638 -0.6955924 0.009654634 0.2684961 -0.029622449 -0.34032142 0.44764367 -0.28422228 -0.05857621 0.19280764 -0.7584518 -0.3676759 -0.16178285 1.3339579 -0.5789278 0.38774052 -0.3642656 0.38450208
TCAAATTT -0.407882 -0.6518311 0.8838864 -0.046448924 0.7952536 0.23571059 0.26795885 0.13392697 -0.8889988 -0.008748116 0.07557977 -1.009921 -0.598597 -0.27847353 0.22175352 0.3139869 -0.18260601 0.8174884 -0.35417876 0.365276 0.6499384 0.47070703 -0.37560514 -0.64561546 0.06875116 -0.2705204 -0.25186765 0.4048813 0.4761188 0.2712593 -0.56976736 0.078285605 0.45712283 -0.22126321 0.55058926 0.13667707 0.09340127 -0.34105203 0.0106448615 0.002993706 -0.42627162 0.118040904 0.25127333 -0.35856026 -0.033211075 -0.1627218 0.19643547 -0.25963372 0.17285523 -0.102860495 0.41314602 0.17882693 0.22626689 0.21303675 -0.31760487 -0.28470567 0.42061338 -0.77576536 0.09807833 0.8224341 -0.6724044 -0.016697343 -0.08325429 -0.35215956 -0.06104576 0.44221097 0.20800073 -0.15040527 -0.44028425 -0.21233742 -0.03572969 -0.33999708 -0.5780612 -0.64862853 0.5829996 -0.97773194 -0.06322399 0.015166027 -0.45172355 -0.1830012 -0.06822183 0.12021108 0.5799795 0.5421231 0.2451179 0.5609129 -0.24743898 -0.5737643 -0.26395082 0.4690726 -0.3336244 -0.09591879 -0.19041893 0.17590709 0.087997496 0.54593074 0.07836134 -0.6629676 -0.72406435 -0.333748 -0.029477328 0.26254123 -0.48188236 -0.836178 0.69495654 0.85593736 -0.6411051 0.36863753 0.34759814 -0.75808895 0.26086986 -0.80334055 0.24855685 0.79120284 0.36667907 -0.6299471 0.70780724 0.077889465 0.2809911 0.111126624 -0.4946446 -0.37194085 -0.047145236 0.84842646 -0.23848335 0.41245997 -0.70450544 0.03037559
AATTTGAA -0.7238771 -0.8549465 0.3660672 0.457151 0.3336029 0.268493 0.20143424 -0.048102427 -0.5019475 0.0903475 -0.42552507 -0.7288839 0.044158567 -0.63667166 0.67646706 0.59487313 -0.40524358 0.777842 -0.040727705 0.56420565 0.13008094 0.48880318 -0.089291185 -0.57871014 -0.5635132 -0.29782376 -0.098804034 0.2141659 0.31237164 0.082476676 -0.11618389 0.047945023 0.2531591 0.06507813 0.6433784 0.25449377 0.46790126 -0.36659145 -0.099963 -0.03361979 0.17815563 -0.37549636 0.19298558 -0.27844262 0.10905958 0.32174107 0.19136924 0.0017942407 0.04361188 -0.098936655 1.0713645 0.09828176 0.051854428 0.20395535 -0.7119997 -0.071730606 0.32569736 -1.2439795 0.022068284 0.98984355 -0.14885645 -0.31240392 0.35955974 -0.07081424 -0.05816471 -0.010719757 -0.3202707 -0.2041893 -0.747364 -0.24331136 -0.04721396 -0.05979761 -0.9777762 0.20340393 0.5688635 -1.3938844 0.20852515 -0.089540586 -0.28834197 0.7091686 -0.25545704 0.19442295 0.33470613 0.82407475 0.19952166 0.667699 0.15000898 -0.74791783 -0.03314122 0.46530408 -0.4903625 -0.08148554 0.18935427 0.41322464 0.14085132 -0.08024582 0.050610926 -0.351722 -0.43801156 0.08450332 0.07958182 -0.10808268 0.16102786 -0.5731117 -0.0008681516 0.46270576 -0.64635587 0.4127444 0.046555605 -0.76495165 -0.2597286 -0.60236275 0.31888467 0.334998 0.19394918 -0.33664703 0.81201714 0.047880113 -0.20919983 -0.058944725 -0.71930254 -0.55632436 0.090282254 1.0167336 -0.50852835 0.3910462 -0.7657853 0.29670724
AAATTTGA -0.54836357 -0.24630524 0.10374778 0.29339123 0.6484523 0.49932152 0.10358465 -0.06382595 -0.088760726 0.35081404 -0.4380827 -1.0035391 -0.37724477 -1.0575911 0.6701636 0.32223022 -0.62466633 0.2483624 -0.32677755 0.62450725 0.21587014 0.5073694 -0.35958454 -0.54120344 -0.38188872 -0.36923057 -0.19979063 0.14485422 0.49779823 0.11895911 -0.8389648 0.051034387 0.035981987 -0.01883236 0.39565724 -0.5207062 -0.08444182 -0.14701603 0.14035907 0.12594865 -0.35527214 -0.14717998 -7.94867e-05 -0.20582223 0.12752618 -0.06774845 0.518806 -0.320748 -0.070079565 -0.053789813 1.080907 -0.10372021 -0.41657588 -0.31222343 -0.2504382 -0.45752645 0.26029414 -0.65807307 -0.074109785 0.5290332 -0.39544743 -0.29382744 0.010325093 -0.37766585 0.21341516 0.22270177 0.17535311 -0.10518813 -0.3515746 -0.5265346 0.022803668 0.2552435 -0.90032446 -0.31865638 0.5310598 -1.0339888 -0.019937554 -0.35222724 -0.3684696 0.19916032 -0.421818 0.2688556 0.2229042 0.52448565 0.25378534 0.6632229 0.45797315 -0.5708154 0.3984796 0.39908504 -0.19681057 -0.17060702 -0.39999613 -0.040877316 0.49141082 0.41834608 0.14715841 -0.35592285 -0.89294505 -0.042750232 0.12108066 0.3966334 -0.37787646 -0.5392439 0.060008768 0.6754181 -0.61459774 0.19001323 0.54243606 -0.7364346 -0.20461622 -0.47959432 0.02407492 0.45128638 -0.11908225 -0.41262588 0.79493564 0.15390457 -0.04502293 -0.12992732 -0.6988226 -0.47852203 -0.3273912 1.2522275 -0.14948107 0.45013127 -0.60313696 0.32797167
GCTCAAAT -0.4023602 -0.58798695 0.5718738 -0.12866516 0.8766721 -0.3982235 -0.10982918 -0.005949545 -0.72954106 0.15540496 0.46673444 -0.44971713 -0.6668213 -0.65973264 0.55611044 0.40880316 -0.43834203 0.7492099 -0.058054145 0.43610844 0.24353655 0.62613684 -0.7477694 -0.52679044 -0.012253303 -0.36881962 -0.35622466 0.31909958 0.6928023 0.56763697 -0.3093365 0.5327025 0.18694077 0.35710356 0.37995517 -0.33614758 -0.16643748 -0.4138593 -0.02057437 0.29887983 -0.031596303 0.4019809 0.18329115 -0.12692165 0.04107287 -0.09157326 0.8138865 -0.6204912 -0.25999567 0.16758665 1.1623149 0.16172446 -0.11089954 0.12472406 -0.316342 0.1417051 0.023663087 -0.49173495 0.027473595 1.0873618 -0.26314524 -0.057857737 -0.18041043 -0.57900435 -0.30108237 0.18691173 0.084073745 0.11335119 -0.312425 -0.30165976 -0.178749 -0.2617686 -0.5021258 -0.47966582 0.4075417 -0.79525024 0.23028377 0.26620445 -0.27371305 -0.0005254216 -0.1833935 0.32725266 0.012012382 0.25073206 -0.037546385 0.9084006 -0.27845228 -1.0354974 0.3194959 0.30905634 -0.4447697 -0.34334755 -0.41445845 -0.19918835 0.28778192 0.06419177 0.27444372 -0.36792937 -0.22990009 -0.5218126 -0.42009327 0.13227841 -0.31206298 -0.21825704 0.52175105 0.23400806 -0.41597146 -0.05294928 0.10745142 -0.9791162 0.050631374 -0.33684647 -0.248942 0.34604362 0.36298648 -0.5256182 0.6657905 -0.62788266 0.0015337976 0.5838776 -0.5804149 -0.6287933 -0.025462955 0.75397605 -0.5889581 0.7620974 -0.8039184 -0.015051157
TTGAAAGC -0.6798588 -1.0340186 0.6702745 0.07663387 0.7658803 0.23832446 0.10509398 0.21165562 0.1602721 -0.004099881 -0.29043284 -0.81405413 0.32566145 -0.62203 0.45646918 0.5447205 -0.455161 0.054304976 -0.079218976 0.51007026 0.33808315 0.21629223 -0.23581545 -0.48832184 -0.3123845 -0.53116643 -0.15776509 -0.070450515 0.51673365 -0.12492131 -0.5342113 -0.042388882 -0.08074176 0.1556059 0.7277871 0.3113955 0.008217552 -0.5157617 0.4552051 0.3680948 0.31542787 0.09084491 -0.04050722 -0.2154231 0.16143978 0.15196891 -0.13687763 -0.30153725 -0.10219629 -0.1775114 0.7099917 -0.2864749 0.073341705 0.63433534 -0.77509195 -0.3053647 -0.15023375 -0.5795712 0.43625328 0.6582665 -0.20764475 -0.24019057 0.6991551 -0.37662953 0.103644155 0.19409227 0.36811668 0.09169302 -0.39762008 0.025807697 -0.76839745 -0.0042747185 -0.3941166 0.19511284 0.68558013 -0.5497863 -0.37046406 -0.31355175 -0.6618376 0.31458917 -0.69131225 -0.059658136 0.6270216 0.2634251 0.23644435 0.7150093 0.12525941 -0.3600913 0.29112992 0.071806505 0.06650391 -0.17121361 -0.33984274 0.16190687 0.29447216 -0.18737358 -0.3573301 -0.14926212 -0.3497188 0.37508866 -0.06787373 0.43339506 0.23814827 -0.41375083 -0.40100944 0.47899938 -0.6510279 0.58069694 0.2959523 -1.1961448 -0.13626386 -1.0441746 0.26650256 0.8924626 0.41510388 -0.38268906 0.8827502 -0.057263806 -0.18309613 -0.44132772 -0.8156984 -0.5459594 0.12476996 0.38238198 -0.4118865 0.79563725 -0.26104996 -0.09378502
TGAAAGCT -0.4847535 -0.6468188 0.15324935 0.80700916 1.0476384 -0.08579892 0.28003547 0.40640762 -0.08565162 0.4637842 0.36030543 -0.24639747 -0.08857003 -0.5304914 0.8277383 0.7290171 -0.35758558 0.09959269 -0.34793705 0.53131 0.27159747 0.4602812 0.5207592 -0.35186246 -0.28217372 -0.36605287 0.01380289 0.15793101 0.23689412 0.044828393 -0.4656558 0.119263805 -0.09844845 0.18053657 0.71701854 0.353706 0.3383999 -0.10373591 0.5940588 0.012143462 0.46069825 0.29973385 0.09463622 -0.42360154 0.74840367 -0.045469593 0.1080077 -0.1462017 -0.33791307 -0.39059746 0.8660971 -0.36610156 0.10234875 0.40576583 -0.46705225 -0.37199947 0.08468887 -0.63385355 0.42845535 0.7455525 -0.67358464 -0.32638502 0.7085297 -0.59646654 -0.19783874 -0.020904236 0.09261741 -0.3242454 -0.48230416 0.1278465 -0.2638769 0.05112755 -0.1921396 -0.24323846 0.6288806 -0.5904404 -0.080399305 -0.29656783 -0.6877462 0.21447794 -0.8158453 -0.079090446 0.24532847 0.5575278 0.8516593 0.25263092 -0.3602294 -0.22901295 0.1821276 0.3436754 -0.107821904 -0.09291612 -0.38823175 -0.06874914 0.27662605 -0.14468147 0.071804434 -0.31054792 -0.35643223 0.30450824 0.1187731 0.14662792 -0.13113335 -0.095166534 -0.2794293 0.43626034 -0.78024584 0.97471267 0.13637458 -0.8805029 -0.6945358 -0.93493295 0.6804528 0.43618128 -0.031866346 -0.4887749 0.57504785 0.4393055 -0.03301378 -0.5931686 -0.28122777 -0.08371244 -0.034915797 0.77447575 -0.40879092 0.53283906 -0.579392 -0.17067318
AGCTCAAA -0.083409816 -0.44877288 0.66405404 -0.23216607 0.55446255 0.008226901 -0.4855351 -0.04167983 -0.28899202 -0.008513219 0.0772785 -0.6911481 -0.6761745 -0.9151543 0.69411206 0.46948725 0.076971754 0.6384727 0.41776234 -0.1448862 0.21255687 0.6061542 -0.4056667 -0.61618626 -0.4824281 -0.3990333 -0.086677685 0.43478718 0.26318648 0.39883342 -0.12461885 0.22650889 0.08945375 0.6046532 0.18198194 -0.3882209 0.092685595 -0.0938185 -0.1627007 0.49345013 0.26365057 0.51303715 0.07991017 -0.087154076 -0.13800837 -0.09439022 0.60832316 -0.13885571 -0.20614533 0.34768373 0.65948296 -0.11243395 0.13629547 -0.07683634 -0.0073192394 -0.11944202 0.12839927 -0.4705705 -0.11695142 1.2088518 -0.19032477 0.36209235 0.016844228 -0.57340187 -0.25370505 0.42060345 0.2718949 -0.61029595 -0.5681344 -0.8368251 -0.14689332 -0.66691357 -0.5972058 -0.6117614 0.3162548 -1.0451317 0.00815451 -0.035754833 -0.53287685 -0.18187425 0.39021462 0.2050344 0.37221175 0.43559834 0.15251547 0.608553 0.10456725 -1.0356302 -0.0054504904 0.5742946 -0.7442665 0.0053069885 -0.33572328 0.25514525 0.060909286 0.06310345 0.39182806 -0.49043718 -0.8831015 -0.1322143 -0.03285104 -0.052267097 -0.19093384 -1.0318803 0.66027164 0.3139311 -0.30043253 0.576069 0.6208433 -0.66000813 0.20113781 -0.58540463 -0.07118633 0.21677618 0.32890046 -0.17968069 0.49723956 -0.22181952 -0.18652304 0.3376451 -0.8098298 -0.51727057 -0.103190064 0.723747 -0.10378476 0.4611472 -0.3399668 -0.1316632
AATAGCAC -0.12741333 -0.7968848 -0.22588971 -0.18775254 0.7450268 0.45508775 -0.47061795 0.01911425 -0.07842168 -0.07198693 -0.48249045 0.09369096 -0.47491193 -0.39797497 -0.0069766077 0.8156716 0.12067657 0.08431689 -0.66444886 0.14878377 0.6610775 0.018825531 -0.53347015 -0.15120986 -0.25475386 -0.11116911 0.9556153 0.5728242 0.505232 -0.023478052 0.76513094 0.38497505 0.9389272 0.11943235 0.7871885 0.29446793 -0.2306969 -0.10723798 -0.90907735 -0.083047576 0.88521117 0.39142796 0.33297417 -0.6050134 0.28349724 -0.17785689 0.043024696 -0.30659112 -0.19537652 -0.048574496 0.53527975 0.35244817 0.12926582 0.13409542 -0.18579528 -0.5450638 0.5841532 -0.21744937 0.015876986 0.84791374 -0.5981574 0.51118356 -0.021435313 0.55867267 0.2946672 0.6027509 0.4358211 -0.71952814 -0.8963534 0.3188983 -0.12238531 0.18653564 -0.68801785 -0.18055879 0.27687573 0.5604894 -0.30653664 -0.49449354 -0.3776503 -0.2630226 0.17374513 -0.9723356 0.18480389 0.20740709 0.54590696 0.49339414 -0.26882324 0.08639121 0.17591938 0.1378775 -0.20698455 -0.10753183 0.17678428 0.1660651 -0.37248594 0.0783196 -0.098911524 0.06951382 -0.7714563 -0.4744631 -0.19994585 0.140113 0.4876111 -0.4457869 -0.07224371 -0.16219741 -0.21428943 0.9956281 -0.090118125 0.4477664 -0.6207259 -0.21070378 0.13498686 0.03538126 -0.27391085 0.27919918 0.047555964 -0.44350472 -0.21619129 -0.32591987 0.28019243 -0.91585505 0.4008611 1.0373309 -0.6897278 -0.14364485 -0.09760021 0.11293287
ATAGCACC 0.31842518 -0.48713052 -0.24731919 -0.11092394 0.8291113 -0.031624317 -0.45987636 0.21899769 -0.062740296 -0.494 0.1586307 0.3287008 -0.35607752 -0.23732287 0.31402832 0.5998977 0.050002698 0.16034803 -0.46920946 0.32352588 0.9864934 0.34471303 -0.6085747 -0.45746157 -0.20429043 -0.012205032 0.80411744 0.80875325 0.87659013 -0.36489576 0.3004381 0.19340184 0.5397983 0.13218965 0.9588285 0.18100677 0.024883293 -0.37859958 -1.1148185 0.09114073 0.57848847 0.5300403 0.114131644 -0.59491134 0.109817386 -0.42275694 0.07744772 -0.09354856 -0.08942108 0.11597017 0.87433517 0.42710444 -0.3595005 -0.17997642 -0.60314006 -0.66980094 0.513483 -0.7693115 -0.15363972 0.3404918 -0.99942213 0.50871897 -0.15542561 0.41447315 0.19664933 0.25086668 0.33570808 -0.31260705 -0.62437737 -0.04473257 -0.6073622 -0.030328732 -0.9490759 -0.048693623 0.29269445 0.57860196 0.016209265 -0.82974595 -0.76097506 -0.3870975 -0.26015824 -0.5017348 0.20601237 0.26708004 0.22000496 0.4354049 -0.48666486 -0.24715264 0.36254317 -0.13622311 0.32191402 -0.57523465 0.23352073 0.50892127 -0.3289189 0.30577615 0.25912794 -0.10231998 -0.31501547 -0.46402624 -0.1186183 0.16435102 0.3086332 -0.3809995 0.4518865 0.20546655 -0.21838431 0.58689696 -0.43322995 0.337631 0.00067956414 0.11844803 -0.3988761 -0.18043478 -0.63998246 0.70914733 0.23944244 -0.46863702 -0.101353996 -0.40850654 0.018190641 -0.39073488 -0.07581132 0.92356384 -0.6137416 0.07925846 -0.61362803 -0.3462134
CAATAGCA -0.007860562 -0.15402213 -0.3827463 -0.27952418 0.62218845 0.60938567 -0.049070507 0.1704271 -0.24090041 -0.12493618 -0.42720866 0.09172439 -0.35730368 -0.3027454 -0.23878118 0.55029315 0.19937266 0.25592276 -0.92627615 0.41213363 0.9625264 0.14362817 -0.8217487 -0.4247723 -0.42646882 -0.053567104 1.0194832 1.0361116 0.6332065 -0.4001804 0.56974304 0.07885537 0.654959 0.14038357 0.59195447 0.44784275 0.39093196 -0.07993953 -0.87853265 -0.21356069 1.1143004 1.0774932 0.13711007 -0.18427494 0.36600852 -0.35664392 0.1430458 -0.31682467 0.015856666 -0.0692651 0.34479034 0.3843411 0.12643816 -0.08944058 -0.7486792 -0.45309705 0.7500567 -0.17685315 -0.062184438 0.14029132 -0.6348791 0.2169475 -0.33188614 -0.045789186 0.7936255 0.38908073 0.5053317 -0.061113577 -0.12068241 -0.11756163 -0.38211772 -0.31422883 -0.97680193 0.23675597 0.78718156 0.70040226 0.23281975 -0.25579193 -0.33463186 -0.31698862 0.17415057 -1.2212367 0.36988002 0.069086924 0.45100796 0.545995 -0.37545097 -0.11742695 -0.23000373 -0.19724159 -0.0134367 -0.3855134 0.09633195 0.34686384 -0.044668768 -0.13781539 -0.30988085 -0.23591428 -0.063460164 0.11034052 -0.028239563 -0.06177481 0.095392115 0.04265109 0.26506704 -0.34168544 -0.14326373 1.2100533 -0.18740623 0.36996874 -0.07914781 0.06592909 0.03775105 0.013990391 -0.3034992 0.62256116 0.093317114 -0.19165412 0.023278508 -0.31302544 0.430304 -0.77426654 0.39985433 0.8412351 -0.7774094 -0.13215691 -0.36521578 -0.010545821
TAGCACCC -0.12059232 -0.12909828 -0.26283678 0.0013182618 0.37942883 -0.006136855 -0.3616817 -0.03865147 -0.33957687 -0.4104902 -0.32229793 0.2625029 -0.5237147 -0.22454777 0.2344617 0.870982 -0.4441758 0.22464807 0.07763254 0.07048271 0.5963745 -0.05102599 -0.7858833 -0.5104851 -0.3305752 -0.16143331 0.3961841 0.71599555 0.7983315 -0.2804159 0.48226652 -0.061295632 1.1200423 0.20517701 1.1147527 0.15422483 0.1285604 0.13727911 -1.2393932 0.14342718 0.894894 0.5821672 0.10720242 -0.40655142 0.42966425 -0.23028614 0.20930399 -0.40220803 0.24505599 0.5731729 0.38692293 0.4674206 -0.45085704 -0.012457242 -0.4211588 -0.72693545 0.3023061 -0.7072783 -0.47500065 0.5830535 -0.40992263 0.14872181 -0.34922048 0.2117761 0.47375152 0.19463587 0.2042559 -0.7050305 -0.81853604 0.0042394386 -0.02673416 0.13102944 -1.1411284 -0.29697454 0.2026302 0.79755205 0.11365718 -0.064284295 -0.8365816 0.19233973 0.37190968 -0.5573797 0.095741 0.26019493 0.8340694 0.69212633 -0.48300907 -0.43140107 0.1821698 -0.16948578 0.2514351 -0.35583732 -0.01026846 0.16244672 0.22589654 0.107350096 -0.12336758 0.30306506 -0.20208141 -0.18386292 -0.31596905 -0.09371932 0.43514153 -0.42257443 0.48058578 -0.3472115 -0.0030767801 0.8663213 -0.10259174 0.39454567 -0.26796335 0.07136834 -0.12877136 -0.2626513 -0.63297147 0.5369549 -0.5094646 -0.4802722 -0.12722416 0.16989565 0.44264054 -0.577426 -0.00026049046 0.76913273 -0.30646002 0.2486046 -0.28878322 -0.01898654
AGCACCCC 0.10135252 -0.23442991 -0.2759697 0.54441375 0.6173743 0.07290535 -0.101807706 0.4450414 -0.10769009 -0.14221904 -0.22052395 0.026008848 -0.45773488 -0.1972631 -0.37320444 0.31087056 0.10511415 0.30886233 -0.18012764 0.40620145 0.77934283 0.029266246 -1.000805 -0.35062984 -0.1444847 -0.07142683 0.13795683 0.89450306 0.4174927 -0.10935918 0.8420739 0.3859353 0.8939533 0.08785134 0.9766288 0.17964074 0.22278966 -0.39575866 -0.7109976 0.07984671 0.5037517 0.90697986 0.23937134 -0.56939656 0.37044832 -0.26000994 0.058965057 -0.45984557 -0.23105125 0.49977708 1.23858 0.6687179 -0.01660019 -0.5376078 -0.25320533 -0.6231764 0.727017 -0.64417124 -0.5731276 0.78542566 -1.358803 0.38562617 -0.28463152 0.2944229 0.16869314 0.061904397 0.11335714 -0.5724643 -0.52846885 -0.21275881 0.029023582 0.00928121 -0.8116388 0.049653903 0.22192161 0.06280114 -0.105523124 -0.12776542 -0.48558033 0.2637099 0.6371985 -0.40543345 0.60600984 0.05282511 0.82999194 0.28363964 -0.6694801 -0.4085605 0.40616503 -0.05635876 -0.04922486 -0.27826953 0.079106 0.20486328 -0.010108066 -0.019255167 0.21464887 0.24571756 0.028289832 -0.4293621 -0.35316402 0.09154243 0.1970177 -0.13335826 0.35093158 -0.46076533 -0.24403079 0.69261605 -0.29169247 0.3402223 -0.04193429 -0.14831345 -0.14085469 -0.34355083 -0.39880872 0.36924922 0.052855838 -0.6587953 -0.17581947 -0.1320379 0.024007615 -0.9992049 0.24093449 0.59444684 -0.7517443 0.33057153 -0.17322358 0.099227026
GGCAATAG -0.47845402 0.63599575 -0.51296073 0.049860507 0.8380298 0.6842286 -0.17905964 0.10330177 0.241463 -0.2514238 -0.6865364 0.014990419 -0.0020910115 0.18313503 -0.24847202 0.20904866 -0.27812225 0.044656996 -0.22593741 0.07903697 0.9540899 0.093994476 -0.69074583 -0.68856364 -0.43775845 -0.20010541 0.77961785 1.1209627 0.69879997 -0.08838011 0.89935684 0.23781542 0.8336195 -0.38441494 0.72648245 0.39806664 0.04252024 -0.1674759 -1.0695975 -0.18008891 0.8629855 0.77932435 -0.14390555 -0.5840972 0.11483931 -0.70377755 0.10732161 0.001987291 -0.22274424 0.1988263 0.53592134 0.27266964 0.07853115 0.21988513 -0.69622314 -0.55717885 0.762617 -0.4145175 -0.08039286 0.27579808 -0.71045 0.30773872 0.22830279 0.2629956 0.21707453 0.38930914 -0.19573736 0.046468403 -0.790256 0.26624942 0.06893106 0.28388533 -0.6590557 0.118466124 0.3903413 0.18450005 0.04838056 -0.5857771 -0.7270039 -0.36540306 -0.080762014 -0.93207574 0.03455616 0.33569923 0.012320181 0.6535513 -0.68784505 -0.17095321 -0.15556896 -0.18582176 0.416106 -0.24667579 -0.17224854 0.015764968 -0.5146815 0.112341866 -0.30137596 -0.022788199 -0.34768915 0.04124451 -0.10805402 -0.003061993 0.73824894 0.035802353 0.1753816 -0.26337606 -0.24059641 0.69141495 -0.3912806 0.7048518 -0.48963368 -0.02301126 -0.40924218 0.013107441 -0.14842102 0.33168837 0.053598102 0.40936872 0.24390052 -0.08857782 0.19439308 -0.58198017 0.7013198 0.5948886 -0.6409398 0.33069545 -0.37941477 0.1319132
GCAATAGC -0.24844731 -0.015137164 -0.059136886 -0.015494141 0.45539945 0.10477009 -0.18427041 0.74588025 -0.40403736 -0.23143478 -0.22082765 -0.069154724 0.07735465 -0.045422606 -0.24449027 0.22488926 -0.6636158 -0.060617737 -0.59203607 0.3930462 0.7906403 0.2368879 -1.0129225 -0.5917466 0.023587106 0.09876782 0.9454949 0.95228404 0.8199468 -0.24502066 0.8473801 0.1860214 0.5879931 0.09171024 0.49366462 0.7197143 -0.14336222 -0.18086231 -1.0196466 -0.306192 0.8655813 0.5563914 0.044866424 -0.37172535 0.23718776 -0.07158564 -0.2747129 0.09402493 0.32709277 0.4894316 0.8170573 0.47763956 0.041197427 0.06938861 -0.24842456 -0.7213913 0.804555 -0.37236357 -0.37908843 0.11587424 -0.48639306 0.13793318 0.032678813 0.07104104 0.60970676 0.08304559 0.088564016 -0.19780084 -0.7056891 -0.065255366 -0.3735323 0.29003796 -0.8728014 0.35469538 0.68921685 0.39607647 -0.16523993 -0.78241223 -0.4042324 -0.48918694 0.05002961 -0.98740697 0.06686287 0.50350726 0.10233848 0.56165373 -0.24232805 -0.16924448 -0.50293607 -0.071001604 0.34187478 -0.59348977 0.29536727 -0.29278162 -0.32448563 0.45594 -0.33147678 -0.119151905 -0.3617396 -0.65468436 0.09344795 0.2934457 0.71652246 0.10698821 0.38741836 -0.080538146 -0.37839022 0.9796571 0.23296879 0.3505446 -0.2136816 -0.09274661 -0.066978544 0.04696808 -0.3240864 0.10277258 -0.050690968 -0.47877198 -0.2680008 -0.09469855 0.37229285 -0.5209613 0.5084382 0.86377734 -0.8248002 -0.16182491 0.101068154 -0.023306841
ATTGACAT 0.16558658 -0.08161374 0.35776046 0.16533561 0.37575492 0.4426447 -0.4448512 0.10679272 -0.79719514 0.8509703 0.18950534 -0.39969042 -0.47162363 -0.17525537 0.31705856 0.1991139 -0.47005284 1.1490647 -0.29806226 0.9286871 0.017070375 -0.29572403 -0.62425846 -0.86853087 -0.67190665 -0.3592991 -0.45393667 0.28584513 0.39071992 0.28347406 0.2447508 -0.07970153 0.05918838 0.20864034 0.13203216 0.7839207 0.71141875 0.67613405 0.0048612426 0.5799179 0.94684136 0.011963217 0.040388014 -0.11158865 0.007042533 0.45046526 -0.3785948 0.23154294 -0.5557691 -0.30849242 0.57980305 -0.21806802 0.37606168 -0.8142775 -0.28179255 0.01787001 0.48703244 -0.40717748 0.24708341 0.1802088 -0.7417155 0.093677424 0.23385356 0.19749625 0.57938457 -0.55663335 0.8562807 -0.21198435 -0.4966124 -0.88274235 -0.10975979 -0.5991437 0.22655776 0.16549487 0.18287483 0.1563162 0.11212508 0.007080674 -0.3612342 -0.39529735 -0.31853363 -0.37057993 -0.35747138 0.23429595 0.12220608 0.60681355 0.1315571 -0.6437344 0.0809514 -0.23699142 0.25453138 0.7281055 -0.3601777 0.22078027 0.13461061 0.53662884 -0.40950793 -0.2537645 -0.13255037 -0.3415116 -0.029248007 0.5808765 -0.4463486 -0.5263636 0.4900093 0.58287257 0.42102426 0.79501045 0.32504654 0.06318545 0.32247177 -0.2973296 -0.06992 -0.21490021 0.6243033 0.27461842 -0.527414 0.7698037 0.5291827 0.45301896 -0.06590893 -0.53707314 0.18462414 0.02601133 -0.1158809 0.6441403 -0.07157661 0.0791816
GGCGCACG -0.13343786 -1.2363496 0.15507703 0.35149112 0.8579316 0.34835333 0.0971385 -0.21543801 -0.15968882 -0.38721675 0.020005662 0.076799005 0.037691984 -0.06443683 0.50588673 0.5958561 -0.15545821 -0.021715468 -0.5179513 0.026648594 0.81489134 -0.018199723 -0.47850576 -0.36882854 -0.472911 0.17280738 0.0375701 0.9447335 0.8676669 -0.7106729 0.8313145 0.033312522 0.47814733 0.08456066 1.0610238 -0.13529839 0.256993 -0.22233732 -0.4001615 0.5661025 0.29581034 0.24310222 0.10413638 -0.31716958 0.5148384 -0.8311165 -0.5874271 0.32439244 0.7231477 -0.07153137 0.65626425 0.31981105 0.20011094 0.11943981 -0.84472007 0.013619648 0.89693975 -0.83945346 -0.34344077 0.46266377 -0.62426174 0.6761412 0.054492515 0.4518309 0.7783247 -0.09343823 0.4174793 -0.27863166 -0.42976794 -0.25271937 -0.75045574 -0.18230072 -0.6826779 0.17062217 0.12490511 -0.0956169 -0.11690501 -0.24662198 -0.23218727 0.002743799 -0.59967697 -0.31906882 0.39884824 0.34563294 0.0012976372 0.73464656 0.18244685 -0.65316415 0.43906325 0.6093809 0.22699553 -0.572735 0.300871 -0.013917898 -0.31339744 0.20608836 0.25923026 0.19285566 -0.22264454 -0.46698567 -0.39789605 -0.19438735 -0.7289606 -0.102509715 -0.4708611 0.3681098 -0.008202618 0.13827914 -0.6453837 -0.0551996 -0.15359458 -0.07807554 0.029141797 -0.031964455 -0.2891965 0.06357656 0.5596383 0.46681353 -0.065047406 -0.22455321 -0.33126384 -0.48035014 -0.18115187 -0.0033040217 -0.042532913 0.29136676 0.14762847 -0.40294433
GGGCGCAC -0.24294621 -1.1785895 -0.054203764 0.3347566 0.45109904 0.8142283 0.11841215 -0.162108 -0.31890735 -0.296885 -0.650292 -0.29807857 -0.06339892 -0.19560371 0.08530946 0.87925196 -0.05991578 0.13546312 -0.4804304 0.04726956 0.42098665 -0.19846092 -0.37940466 -0.6395845 -0.5801618 0.1301262 0.24744359 0.74871314 0.56834126 -0.19528043 1.2272935 0.41396174 0.5563237 0.03184029 1.0828469 0.057570286 0.12027335 -0.16291095 -0.49718192 0.17698649 0.2740762 0.4368217 0.19576712 -0.08568808 0.70095557 -0.65651494 -0.5522972 0.36938342 0.6532246 -0.15817517 0.59646857 0.31345427 0.3918525 0.41906998 -0.44712964 -0.22593419 1.0506502 -0.4929014 -0.56019616 0.6422784 -0.30731013 0.47443146 -0.18683872 0.15297484 0.3070716 -0.051220577 0.27878666 -0.8365314 -0.59903556 0.12498237 0.090649836 -0.3003908 -0.14324719 -0.18357311 0.44207337 0.0026081575 -0.13752985 0.26816863 -0.20357518 0.4831855 0.082654364 -0.528744 0.7179052 -0.00606708 0.30322236 0.6717678 0.37095734 -0.8314866 0.17081201 0.5495411 -0.1610098 -0.029318625 0.32097128 -0.012610075 -0.27088368 0.06414911 -0.057097983 0.26135856 -0.26586428 -0.31746805 -0.34140778 -0.048101924 -0.5231681 0.06449487 -0.6325803 -0.13784376 -0.26311564 0.9773616 -0.35899872 0.018470017 -0.58043444 -0.45763952 0.25556523 0.33349523 -0.259871 -0.14627844 0.36165592 0.4841691 -0.20447288 -0.11425396 0.0010483015 -0.95793164 -0.30117756 0.3256121 -0.21904115 -0.029087132 0.03345111 -0.23646463
CCCGGGCG -0.4417421 -0.3513973 -0.15319425 0.43295306 0.8582762 0.6444311 0.41657147 -0.44941762 0.1471506 -0.8082642 -0.7724022 -0.15691599 0.06941228 -0.070388645 0.19280493 0.29873142 -0.15020798 0.035997298 0.059101287 0.010376199 0.8917533 -0.10052765 -0.71639454 -0.7683486 -0.58335936 0.021868858 -0.24768446 1.0750818 0.72965753 -0.28178382 0.93089867 0.32675517 0.7672409 -0.38630244 1.2870101 -0.24713945 0.1746259 -0.3385176 -0.7114641 0.22012593 0.0625858 0.14631769 0.06794474 -0.29745722 0.38103256 -0.8226834 -0.017056998 -0.20205787 0.48603663 0.39375374 0.44191062 0.84651035 0.03922234 0.04716184 -0.5543594 -0.36468053 0.8370599 -0.98489064 -0.58965194 0.45377085 -0.7061563 0.4448399 -0.016911505 0.17063814 -0.0032790059 -0.15077081 -0.0036598954 -0.35691586 -0.7896405 0.053711757 -0.40046456 0.05167684 -0.5978811 -0.33783504 0.13580449 0.16029465 -0.18756495 0.19572622 -0.55634 0.056160532 0.22054091 -0.37875432 0.577863 0.034368556 0.41281927 0.7494303 0.04879635 -0.5403069 0.22733055 0.057406276 0.20203422 -0.21588229 -0.3519385 0.06860929 -0.5452741 0.102311864 0.07908394 0.68055534 -0.16283047 0.2038638 -0.33447036 -0.10427248 -0.06941933 0.10842392 -0.2371837 -0.046951547 -0.118016995 0.52294713 -0.62057954 0.62452894 -0.6913222 0.088482924 -0.1273838 -0.03145398 -0.124056116 0.20590247 0.17339332 0.25654882 0.2807149 -0.04427539 -0.09970339 -0.66053146 -0.12241552 0.21919835 -0.25993553 0.49691546 -0.4803128 0.008927551
CGAGGACC 0.29625428 -0.9573681 0.17369634 0.5572318 0.6132599 0.11222654 0.09355928 -0.50460494 -0.260415 0.56907743 0.485428 -0.20027888 -0.2674736 -0.57860667 0.31077477 1.0791795 -0.44746608 -0.27566764 0.18185328 0.0819512 0.32647374 0.1528087 -0.24381919 0.015448805 -0.7077017 0.32459426 -0.534747 0.549234 0.60083675 -0.36299196 0.32407388 0.14555359 0.8091984 -0.087754264 1.130401 -0.12985589 0.19462614 -0.030832507 0.028092934 0.07665382 -0.2302277 0.9191524 0.20229581 -0.2512143 0.71666694 -0.30418655 -0.6122324 0.38930053 0.4499729 -0.14495106 0.54642755 0.41262376 -0.13253269 0.60827845 -0.7702656 -0.49898282 0.17639431 -0.29478762 -0.81803787 0.17764398 -0.7656447 0.17328815 0.029608492 0.361263 0.7280062 -0.4675985 1.0077926 -0.45914263 -0.7642059 -0.53901845 -0.10263383 -0.20772277 -0.039485708 -0.30780455 0.20840088 0.13687189 0.002632625 0.0769336 -0.0393 0.98068076 0.04993086 0.20505115 0.46315935 0.105203286 0.5526285 0.87705183 0.5673969 -1.2502289 0.37136367 0.31202552 -0.17301318 -0.0784961 -0.015738577 0.18751313 0.5472812 -0.26894745 0.95588857 0.2362826 -0.046337314 -0.08458598 -0.09217603 -0.37730914 -0.504478 0.08616235 -0.118680455 0.33430445 0.19844048 0.3293682 -0.12676409 -0.38656163 -0.12467333 -0.297838 -0.12208572 -0.20312719 0.08242504 -0.039650142 0.4445584 -0.1931794 -0.094098434 0.2808525 -0.29851723 -0.5407356 -0.3286139 -0.32416067 0.25980738 0.49666992 0.26492435 -0.58329105
GCACCCCG -0.09361447 -0.5213368 -0.13638113 0.28461137 0.5940009 0.29873273 -0.01934468 -0.117937416 -0.28120282 -0.5728867 0.01672809 -0.042748444 -0.58011466 -0.61194897 -0.1713249 0.5815661 -0.29007205 0.59787697 0.15521197 0.22646683 0.4658804 0.35093775 -1.0967098 -0.5100032 -0.32300892 -0.024835551 0.19815065 1.2493324 0.4615911 0.26112515 0.8297612 0.20292619 0.7887478 0.07425684 1.223676 -0.1773423 -0.015609433 -0.032090094 -1.0742447 -0.28976667 0.6077762 0.7393768 -0.015227799 -0.48775017 0.3277204 -0.48899695 -0.34417975 -0.09109634 0.017177366 0.71166015 0.65101624 0.88040507 0.08679565 0.1414546 -0.29067412 -0.4437289 0.079833925 -1.0770196 -0.36336812 0.64478314 -0.8236168 0.13974321 0.17929268 -0.0164846 0.3352236 0.07026742 0.60846615 -0.6937251 -0.7196931 0.2637542 -0.35261256 -0.1538446 -0.5634191 -0.03024957 0.17456798 0.3164989 -0.10640199 0.04413642 -0.33740604 0.09453398 0.028674472 -0.44727612 0.22533019 -0.09712476 0.9723651 0.34614336 -0.032014117 -0.51890963 -0.07223197 0.037879366 0.086203635 -0.4541032 0.16132805 -0.0121018225 -0.48570585 -0.21013036 0.41022676 0.12599416 -0.41937092 -0.13485648 0.044142023 0.08281489 0.008923551 -0.1706608 0.47166038 -0.2286409 0.26037335 0.88693774 -0.3320802 0.32531443 -0.07301778 0.15766172 -0.07415256 -0.4758655 -0.20880139 0.1321491 0.027645148 -0.7231564 0.17809944 -0.5049977 0.2650301 -0.71873826 0.26264814 0.7189838 -0.5917898 0.25395244 -0.542273 -0.18583693
AATTGACA 0.2582659 -0.41622555 0.6298045 0.29294455 0.5753289 0.34149083 -0.4245776 -0.18195067 -0.60619944 0.33563843 0.6955607 0.016007548 -0.8272381 -0.30726364 0.17789143 0.47180742 -0.6988225 0.4414852 -0.19364063 0.5224405 -0.017751519 -0.3681459 -0.25826687 -0.7329301 -0.38278487 -0.29525784 -0.035832066 0.51995987 0.5297046 0.67579716 0.24717966 0.6795865 0.30110943 0.28590134 0.22097428 0.2149251 0.68536395 0.60821074 -1.0087262 0.113584176 1.1617252 0.34896705 0.27366775 0.085673936 -0.06016657 0.20652997 -0.45595726 0.26272246 -0.407775 -0.27126282 0.035851512 0.12056206 0.4352868 -0.38879958 -0.26716158 -0.18873702 0.5295251 0.0045127906 -0.09902106 0.11371722 -0.7859165 0.24447058 0.28555772 0.25307962 0.54031634 -0.7072507 0.9127458 -0.59315586 -0.4021727 -0.5680596 -0.16358955 -0.21818598 -0.17106816 0.07111378 0.116948225 0.12918958 0.22996269 -0.35184 -0.37525094 -0.88437676 -0.53548396 -0.9442379 -0.21068065 0.3898827 -0.019929828 0.42003873 -0.051628217 -0.92590296 0.09755562 -0.32383496 0.32214978 0.92068434 -0.45438966 0.12901405 -0.36990634 0.040003177 -0.16541833 0.024884423 -0.25519714 -0.25585356 -0.216845 0.25596848 -0.78537047 -0.44384626 0.52732646 0.39969227 0.30856773 0.7061439 0.22180666 0.520821 -0.026945334 0.15479831 0.4293935 -0.3436119 0.4563498 0.4522775 -0.4072695 0.3516085 0.42248657 0.2952388 0.009581631 -0.36390015 -0.36306742 -0.04139342 -0.2515159 0.41653055 0.24743658 -0.32902795
